[[[0.0011752769947473431, 0.0005769270872197365, 0.0012500945106221886, 3.442104988821165e-05, 0.0006448754249256499, 0.0010801410006510818, 0.0006420831390912708, 0.0003692941251941733, 0.0009835458378727002, 0.0004566935667019149], [0.0010369183656345348, 0.0012111971492736625, 0.0008218065494308383, 0.0005189864890164858, 3.0468858419509273e-05, 0.0007995026069874034, 4.4238726181336024e-05, 0.0003926988089834753, 0.00024499352246526706, 0.0005415883685410615], [0.0005099402957692967, 0.00031866714716288427, 0.001077044863135294, 0.00025185091479373325, 0.0008054931048011482, 0.0008798036942056348, 0.0002549195128249799, 0.0009492522539257949, 0.0007461256585163624, 0.001115870566812872], [0.0011852435681952572, 0.00033827714621113494, 0.0007634898436450868, 0.0005160141074694588, 0.000779501573071935, 0.0009356824023234759, 0.0009673095546062171, 0.0011977270213476626, 0.0007966109691247041, 0.00016854208533389865], [0.0008600430128504622, 0.0011298865425319882, 0.0004088139442251836, 0.0009115666446239515, 0.0004486734705464796, 0.0012050869757618521, 9.724277231159612e-05, 0.0006336419364951127, 0.0011820151965296563, 1.886431712888702e-05], [0.0012731517116425463, 0.0006374154681569946, 0.0008615678096365511, 0.0011537897656476853, 0.0011305998751078026, 0.001258809251179334, 0.0011616545271598902, 0.0012169011211210427, 0.000512532248684839, 0.00030563416297370446], [0.00012318585088928136, 0.0012151062649665304, 0.0001821877257208791, 0.0006697799133069327, 0.00015109150018518963, 0.0009194655402752012, 0.00015806524121488667, 0.0007175314095691645, 0.00018087310746821476, 0.0006183471948241852], [0.0006769099848140548, 0.000236304490227903, 0.00026495255344688624, 0.0001706515762409284, 0.0008004544836725516, 0.00031132933251271495, 8.464606088882275e-05, 0.00014263413838504297, 0.0005868968845646467, 0.00011294851682574507], [0.00047914649378070665, 0.0011277984498173387, 0.0011794038152079472, 0.0010251896663655898, 0.001096492423887685, 0.0008227314935550108, 0.00046306075756659583, 0.00022095119428594133, 0.00024186380577402887, 2.255793124703768e-05], [0.0012615216004056922, 0.0006107346128361417, 0.0005268294555554933, 0.0009138100717265571, 0.0007846990659472144, 0.0008301585424612709, 0.0007757935959160947, 0.000653444175963907, 0.00012796972714546758, 0.0004797790590606781], [0.00017290138179902912, 0.0005837902410004053, 0.0009950098139622837, 0.0005363769893759707, 0.0008043273436481067, 0.0003693109691640255, 0.0011326348465955551, 0.0011293942637829015, 0.00046798958283468555, 0.0007806326367056761], [0.00015696047786801476, 0.00016102116809947495, 0.00046324107235097637, 0.0011276817385745595, 0.0009008746232585885, 0.0008217323738238297, 0.0008154857570027038, 0.0011769927876812546, 0.0010116563941860535, 0.0006568285990467998], [0.001251883719282459, 0.0011230780136853983, 0.0007765972373733459, -4.258551063263312e-05, 0.0009378002839347197, 0.0006846819519301762, 0.0013906816863463452, 0.0012157066620061877, 0.0008900602691670167, 0.00021353195822779492], [0.00022268839225085318, 0.0005514952613089621, 0.0004360137549868818, 0.0005437945560140356, 0.00025116736937600136, 0.00019322761822909877, 0.0006643397369863721, 0.0007913566745685136, 0.0004852428310445408, 0.00037399704577058816], [0.0007745807674472448, 0.0010693258455281354, 0.0007931005239770324, 0.0009250041325275026, -9.7180618158732e-05, 0.0012238744942519978, 0.0007258787961434315, 0.0003584801233812088, 0.0010781018980027294, 0.0009914060401025177], [0.0008103589179930925, 0.0001707938425208585, 0.0002875730136024255, 0.0009288029629428569, 0.0005843681866249385, 0.000549277913994707, 0.00019090752691194605, 0.0011290603411743655, 0.000674600576878873, 9.807372870716539e-05], [0.0002715458018185175, 0.0007399890001781038, 0.0012629453660295655, 0.0006587469934809553, 2.3105946851498303e-05, 0.0009754352058706472, 0.00039037544333619234, 0.0012551306076011048, 0.001212907369923126, 0.00019128964518088173], [0.0007375638280817556, 0.0006999700251133064, 0.0002617851125235356, 0.00046384270903255403, 0.0008283913815039672, 0.0004508176004543845, 8.573968767106075e-05, 0.0007350479828269852, 3.0765900373296102e-06, 0.00043388122467841054], [0.00013364492860435745, 0.0009859885566299786, 0.0008799783957362188, 0.001092729384328442, 0.0011092544347869207, 0.000202590003563182, 0.0005718415499199184, 0.000713914270726062, 0.00026240894221558696, 0.0011588432465499078], [0.0011664360964442945, 0.0006920492260101651, 0.0010324982799747486, 0.0005624067444027993, 0.0009032842363058067, 0.0002961880357045331, 0.0007257204663975224, 0.0009192356966001961, 0.0007762442084371348, 0.00034482046275751034], [0.0007646242977704302, 0.0004377863842718025, 0.000155908238926173, 0.0006057318141857562, 0.0010026743212643537, 0.001211692640146968, 0.0011009448872432632, 0.00012751130901534157, 0.0011438979604923361, 0.001200107056197904], [0.0008365495457263624, 0.0005504293509832869, 0.0012509889477752246, 0.0006449872736329555, 0.0010900852509327975, 0.00048505617904544084, 0.0005258853233513517, 0.00016663343389384735, 0.0009228904310439961, 0.0006670501943649252], [0.0007770514153884422, 0.001097632843811134, 0.0012450555822248112, 0.00029985461736255214, 0.0006647999933992887, 0.00019255845954235665, 0.001252871149752803, 6.432360359725401e-05, 0.0003114363467596857, 0.0007677579770158467], [0.00041875361192905534, 0.001008622157994287, 0.0009712258386002601, 0.001162344090709728, 0.0009622529698506528, 0.00045230648904086204, 0.0003841667437516658, 0.0009356929220355059, 0.00016552504000794932, 8.912024022758223e-05], [0.0005857561443329658, 0.001173811554969115, 0.000603708300419866, 4.945146709497872e-05, 0.0012175417362095247, 0.0009080249525168594, 0.0001124012114041223, 0.001244126230583477, 0.00048749807734415674, 0.0007013820022571236], [0.0012302770549935298, 0.0005756154482517743, 2.9972344770607886e-05, 0.0006784346244106885, 0.000604063058635554, 0.0006323271452589826, 0.00015668472826139212, 0.0009717952568525748, 0.0012385911503893308, 0.00017106555497743773], [0.0011289327281906799, 0.0011636366159968091, 0.0001472160984666702, 0.0006742408823858288, 5.981014678252249e-05, 0.0009377073054897535, 0.0011605129029822084, 0.0004963611653520636, 0.0012288754713146472, 0.0004992356666137163], [0.0011505841341512997, 0.0009358794667707349, 0.0007524092864863005, 0.0012718870210161701, 0.001148289743491031, 0.00017290574581754474, 0.00015029695624367199, 0.0004370191803553642, 0.0008964316679225942, 0.0012446178390580446], [0.0007238849012165064, 0.0005688924401268768, 0.000939180093730553, 0.0006238850283800273, 0.0008087918022656035, 0.0001849550506364529, 0.0007986714392560468, 0.0010322698292217487, 0.000762729008888827, 0.0009704207489998696], [0.0006007797100973996, 0.000768395479980538, 0.0010774670293121765, 0.001245063261884637, 0.0011415003490479734, 0.0006842756175763591, 0.0004089910668109836, 0.0009212282817398158, 0.0010221536296601932, 3.743555133968839e-05], [0.0007253195217387272, 0.001165514202641087, 0.0009127948111022546, 0.000761449656601284, 0.00033755999975751617, 0.0005552081599616379, 0.001056998914423921, 0.0005560354188774659, 0.0004053284362970029, 0.00035939810375895166], [0.001105240187143431, 0.0006116396212699199, 0.0006941672103461857, 0.0012103910415765585, 0.0010747009939817036, 0.000911290428465623, 0.0005346669868963238, 0.0009560194773694429, 0.00024244932795999095, 0.00027347289658181365], [0.0004689012869337648, 0.00059752612905952, 0.0007125320227956218, 0.0011088735693235827, 0.0004613071859515879, 0.0005913363182222776, 0.000761957621859374, 0.0011795753973644371, 5.8283632696113184e-05, 0.0009009025204341708], [0.0006144979054480533, 0.0006135956294878687, 0.0012536244255520878, 0.0002966159943582674, 0.0001689059575817662, 4.082756258585308e-05, 0.001202484105813989, 0.00017117793430752482, 1.6823833981306504e-05, 0.001027962898550713], [0.0011721406592281693, 0.0012841270171310565, 0.0005244727840358226, 0.0009749100672007266, -2.3197272767105555e-05, 0.0011296295723134927, 0.0011127934943719279, 0.0008488772023608122, 0.0011625964753335285, 0.00027926153949620823], [0.0008784515182011531, 0.00030672163553300115, -0.0007578895650824078, 0.00016127437091638684, -0.0009131712472809994, -0.00016204711164060422, 0.0027420988094150277, 0.0001585652661176048, 0.0012239394460587501, 0.0002733742171603442], [0.000803408598626342, 0.0001824006769038177, -0.0009468758164212007, 0.0011162122696140803, -0.002149107200906928, 0.0004234129870359203, 0.003543167569708791, 0.0006525443818758496, 0.0010116716962738565, 0.0006707569551872196], [0.000774108700570024, 0.00048076516634269035, -0.0011156330324474902, 0.0014174929117602493, -0.0020423765041050145, 0.001998566389795186, 0.004760477086982394, 0.000471225039348641, 0.0006616886683466212, 0.0007480331409395882], [0.00022709479883753963, -0.0006763672424770043, -0.0031073616181813823, 0.00226545978323174, -0.0035682436795142877, 0.0014296898386725887, 0.006207130435443655, -0.00027667569599422714, -0.0002818571537909264, 0.0005431661620057827], [0.000839226594131547, 6.382477647934316e-05, -0.003849632253327428, 0.0015755946811205513, -0.004639934012356486, 0.0013906100503418108, 0.007747442305541596, -0.00045673571545684725, 2.814981083560243e-05, 6.291286400427681e-05], [0.001895638668292625, -0.0005893612934312927, -0.005019178113414327, 0.0019892080162218786, -0.004767648945503994, 0.0011595003043801417, 0.009602755963249165, -0.0007466304017948898, -0.00038436268321643234, -0.00034496933059097857], [0.0019150264979760083, -0.0005578672012947726, -0.003899232387554316, 0.002092006091337952, -0.004063130538997278, -0.0006267353710799022, 0.00876166052686049, -2.3000193344931906e-05, -0.0005322569152704809, -0.00017492425026537347], [2.672176646842812e-05, -0.0009699296799385166, -0.003027556880857191, 0.0018292787284488962, -0.003442943691703519, 0.00029734165639297915, 0.005866267423423881, 3.621325229565143e-05, 0.00041605094929092256, 0.00030163978601502637], [-0.00031738958619165805, -0.00042502636878337364, -0.0021725867297914384, 0.002421070538647625, -0.0023963395647327254, 0.000710220911171061, 0.005768697312234694, -9.070659326372699e-05, -1.1100060140967885e-05, -0.0004126999483396778], [0.0008850454772152808, -0.0009057783355814085, 0.0008903650446492392, 0.0015722101507312475, -0.0031312591370260736, 0.00023833188949863517, 0.004938519385038668, -0.0017066323973751688, -0.00018050076546199202, 0.0003215058466355468], [0.0010577842446773348, -0.00019784893738086592, -0.0010279251816602058, 0.0015664610374515272, -0.0030703169118004164, 0.0004976967343386093, 0.006067958590050729, -8.668009135628522e-05, -0.00038226800750329075, -0.00010430613764416938], [-0.00042635204539605764, -0.000828438988304822, -0.0012962634687825399, 0.0021596086601575475, -0.0009365578438606604, 7.517999494370194e-05, 0.005379825627446972, 0.0005866106777721514, 6.616424303151014e-05, -8.63044624679208e-05], [-1.167899903817908e-05, -0.0006453857770542908, -0.0004396776831174571, 0.0007488910138593749, -0.0007713883402694538, -0.0001294191131233565, 0.005064722295145393, 0.0004245352639792155, -7.866302882233562e-05, 0.00027830567917279376], [-6.655422326933095e-05, -0.0008540074791864141, -0.00012851920238430962, 0.0013685985801421426, -0.0008784329332859683, 0.0001985406503584583, 0.003578510918022401, 0.0014518761291710694, 0.000726613451966101, -0.00016650509320422253], [-0.00025797807433806664, 0.0005622690475167428, 0.00036477739092886143, 0.00128052714679241, -0.00026242935396631823, 0.0008218912636876061, 0.0017780919840344168, 0.00115083424578921, 0.00045423549117386226, 0.00033528345615510823], [0.0004028813737088898, 0.0010313125420190461, 0.0001100477318859489, 0.001535112458914701, 0.00031838279896054126, 0.0005824346828183512, 0.001202239225752332, 0.0004542746760438631, 0.0008794829876033257, 0.00023591209789155032], [0.0007771446747719678, 0.00045521452074380394, 0.0004922896296313948, 0.0010777346286962258, 6.83231794700446e-05, 0.0008638838748489315, 0.0008730100384183809, 6.428655703867575e-05, 0.0008638080578679645, 0.0008078096113439836], [0.0012575231111631177, 0.0005189667947053571, 0.0002546829627982347, 0.0011062388973870545, 0.0007752433718748755, 0.001003675754420981, 0.0010191463368850317, 0.0001261750043767347, 0.0005062752229638503, 0.00040004218171037106], [9.736627793727064e-05, 0.0010405504099923058, 0.0012641738472061641, 1.2311115420242634e-05, 0.0008663345771435944, 0.00032701997340302166, 0.0007711212641871289, 0.0009323381696684504, 0.000988044776350688, 0.0011428656123909124], [0.0010661208174827048, 0.00019599805534775735, 2.503738719097118e-05, 0.00045615719817241647, 0.0008227552878201352, 0.00127318285082074, 0.0008282754111897516, 0.0006914863271769259, 4.9468378309880236e-05, 0.0011093766856580935], [0.00029090505175209, 0.001060133297352298, 0.0005013854380878464, 0.0002344374234547091, 0.0007314733641940654, 0.0003335419667484219, 0.0011900878900688305, 0.0009149986536754631, 0.00017226596675149852, 0.0011820132939640178], [0.0006701450223090891, 0.0002039983490672353, 8.314136175706577e-05, 0.0011378879359234483, 0.0009842967963727503, 0.0008610927835020567, 0.00023244321154086402, 0.0008399198005055773, 0.0009518308629409155, 0.0006256060866196253], [0.0012495892544502189, 0.0003511680524380457, 0.0011144242944710887, 0.0010109973741334525, 0.0007138896911297787, 0.00010959280153321201, 0.00044966694046459725, 5.526978546263747e-06, 0.0009162239301119191, 0.0007226171245315361], [0.0011148072344433551, 0.0010056223246609733, 0.0008138849445901375, 0.00040713225210630365, 0.0007176919077410587, 0.0001846905996693595, 0.0010266995163209151, 0.0008384629998281583, 0.0007155235086480316, 0.000919717273679216], [0.00020987716911760528, 0.00018100866313313944, 0.0009486593896716063, 0.0008969571814168059, 0.001077221738836659, 0.0004369829874177233, 0.00035334403961800225, 0.00035720675447851633, 0.0005383398720171127, 0.0003581250253627941], [0.00022598466291207393, 0.0002323347980741731, 0.00035061344602574417, 0.0011327946204287343, 0.00076826418010165, 2.9047865951036207e-05, 0.0013640995611321084, 0.000916724301092223, 0.0013633875587882505, 0.0003994236022182169], [0.0010752222572769018, 8.31404841472793e-05, 0.0005151983635978761, 0.0005686027652410876, 7.86305426288863e-05, 0.00021835968755563626, 0.0013467172177879395, 0.0001551367567261079, 0.00017063787459271836, 0.00012709791570664303], [0.00015336328638502128, 0.0009285420039592667, -0.00046797498071165367, 0.0008415508793459485, -0.0021083625830894226, 0.0019071030497912413, 0.0032719730222119346, 0.00021948028578574552, 0.001166773644303933, 0.0002783613376094002], [0.00044177229967183953, -0.0003999826203678821, -0.0012671266820582909, 0.00030305749749882867, -0.0069279294056823, 0.002423418626724524, 0.0064158550311153315, -0.00027011346762122245, 0.0006631275464792761, 4.2908329357723714e-05], [-0.0009433085723219824, -0.0003688317819657353, -0.004028823320034068, -0.0009235921777345071, -0.01087277442843295, 0.004899672863887067, 0.011025267476685748, -0.0008102161322625069, 0.00204136976745168, 0.0017937914075542643], [-0.0039328472784677, -0.0027795937699166035, -0.0055263468010544065, -0.0001505189529752354, -0.0167976211422706, 0.007671377172840755, 0.01839216922531882, -0.0009192332456727774, 0.0010257679349284991, 0.002517730630072016], [-0.004158728435280451, -0.004296947521749985, -0.012289646746957135, 0.0024191481655023244, -0.026467616326440836, 0.008078261359638768, 0.031145764323233883, -0.0031802912824048673, 2.8252351087198078e-05, 0.0018051868424627448], [0.0003478099243090586, -0.002191644647141948, -0.01811823273427632, 0.005545093750388372, -0.03334408405883288, 0.003016453284991866, 0.04020387141538801, -0.0024678941745714853, -1.2660750013773895e-05, -0.0011760709259259212], [8.155759303720019e-05, 0.0009702597099927675, -0.02528637473607907, 0.005946765537057597, -0.03952367991263706, -0.0003697531719587954, 0.05402700460448535, -0.001510302088053794, -0.0023381944387938333, -0.0041730550934198024], [-0.002085848484044955, -0.00042007058050876024, -0.03388840600554956, 0.009547322190007767, -0.04007258752073047, -0.0032035478648695086, 0.06743214882814713, 0.002608822162548975, -0.0021358329144845895, -0.007068033666809559], [-0.004877084946804591, -0.005236561465721752, -0.03578419095056503, 0.012110186368710541, -0.037208994574988656, -0.006048626296894537, 0.07184790463954625, 0.005527456427702363, -0.0043625963896623534, -0.007401288641337124], [-0.00891816032502563, -0.004880921094040803, -0.03521581016696161, 0.012327298041689548, -0.03200727414989968, -0.009220309442078207, 0.06906800252430466, 0.006032556732872344, -0.003902855581171496, -0.007332418592991736], [-0.016024497803502544, -0.0050436518232449875, -0.03571804275866414, 0.015978748102307188, -0.02840496903778206, -0.007663750582275717, 0.06927760899145516, 0.0038254615869999665, -0.002558562861054884, -0.008659416277731811], [-0.014657557258090688, -0.006045182879784334, -0.033544924114237484, 0.017721612621769134, -0.024051033288459336, -0.007301480705547195, 0.06157013608206182, 0.004596835432049101, 0.0011681233600990602, -0.007113085066029935], [-0.013974411637838465, -0.008248238781358932, -0.029693899611338705, 0.014453012667044967, -0.017796241522927865, -0.007880328649430345, 0.05627556553529972, 0.005455035820127842, 0.0008824334939794795, -0.005681029775958499], [-0.014880267620028467, -0.009287193029117274, -0.02275768429533934, 0.01200151689938573, -0.01138385479813166, -0.009112357328839582, 0.04908751100844065, 0.006759488730693113, 0.000917477267370942, -0.00519432059585386], [-0.0121236329154075, -0.010484545897733752, -0.013337154166890191, 0.009248031015582383, -0.009021725640877807, -0.010297419500312311, 0.037905035321277376, 0.006825961151039955, 0.005192312890434034, -0.001184678805205713], [-0.006042034901611753, -0.008205359113957165, -0.007780788395345995, 0.00552254159319266, -0.007716436887049386, -0.009009822762473925, 0.028747562031541316, 0.005277359950685274, 0.003941715826613781, 0.00026963400220922763], [-0.003992542968801977, -0.003993781909569256, -0.004496092835511152, 0.0043440624381114075, -0.005276126307990214, -0.005317849416947287, 0.01827838854575719, 0.0031752331675228914, 0.002203937491231632, -6.175484663634994e-05], [-0.001467157877062456, -0.0014548883202799574, -0.0008137686439070676, 0.0015890463268748891, -0.001536379445493951, -0.002422175706912757, 0.007361324049474746, 0.0008425612132556454, 3.872441579995327e-05, 0.0006264305440776693], [0.0002884218827152124, -0.0006916774255484419, 0.0004013737157917832, 0.000857537975718968, 0.0001667776840172993, -0.0006168040006139256, 0.0025671601616024703, 0.001395224474166866, -0.00010972896438903674, 0.0002794537302606025], [9.948840480166505e-05, 0.000664808278928167, 0.0009383129015869528, 0.0013804277063187397, 0.0009145313033254787, 0.00029626238715175026, 0.000692705256368803, 0.0014071042093901241, 5.398367353748037e-05, -2.3355319636064045e-05], [0.0005841282765389293, 0.0004501629317466866, 4.2105802340215e-05, 0.0006879837316040957, 0.0008545106348953424, 0.00027819169259992983, 0.0006530710525697063, 0.0009733102670900254, 0.0010661176648752743, 0.00021059143383668133], [0.001197674290745899, 8.209590690089337e-06, 0.0007770188979853937, 0.0006359293462682515, 0.0012566184512110038, 0.0005733761506729619, 0.0010064489616964365, 0.0001446309302267208, 0.0006584229636183642, 0.0012312766115453876], [0.0007276958512567004, 0.0008912663485926468, 0.0010049788878558814, 0.0008958648858156124, 0.0005310349582900097, 0.0001842947925026455, 0.000975439464256503, 0.0007438808349139401, 0.000793934193800446, 0.00017263824784801367], [0.0006101589769253837, 0.0005141272203183508, 0.0002109202248047007, 0.001196480157167294, 0.00022934664335940545, 0.00035871879770543947, 0.00026294251138388956, 0.0005682069412064914, 8.364275839027701e-05, 0.0003920503254426206], [0.000811848012254928, 0.0005466773487141384, 0.0009615619482929952, 0.0012288301671452412, 0.0009270075169302063, 0.00039363670970189165, 0.0004544618239563122, 0.0006336679253371107, 2.615603494143917e-05, -6.47043112943491e-05], [0.0007075956972576928, 0.0002452254393923326, 2.517008107635897e-05, 0.00031302656146184126, 0.0006370110046567753, 0.0003232382880033972, 0.001191440400220024, 8.22348238207376e-05, 0.00027615151504050946, 0.0007471380971790025], [0.0004185484829045402, 0.00012034293173758516, 0.0006818053248228517, -5.4454000535213635e-05, -0.0001426882021910504, 0.0010213708672286424, 0.0007698726474871724, 4.7217089105012504e-05, 0.0007201305394448085, 0.0005847407347767017], [-0.0006970618792575177, 0.00029629739112124325, 0.00010934551207786858, 0.0012077116123500181, -0.00039779658650263667, 0.0008851892083284879, 0.0011241108921480262, 0.0006269521039763663, 0.00039155814178046695, 0.0010618051853450835], [-0.0006606081220388983, -0.0008277604945724045, 0.0012356453843262094, -0.0006506905592373077, -0.0021164265474968007, 0.0022212355173335096, 0.002504346597969648, 0.0012759311704018121, 0.0006543456802659137, 0.0007884779844087526], [-0.0010250800293608673, -0.0025830822671034145, 0.002944275972517819, -0.003392009099886283, -0.008389016194514732, 0.004812300599658148, 0.004193015526151748, 0.001338076394060809, 0.0013051988091822364, 0.0013587482405101787], [-0.003701051534435229, -0.0067574211391452565, 0.005854930143641988, -0.009105166374573384, -0.01181440259778544, 0.009854876945430578, 0.00699392877974622, 0.0012822885392268341, 0.002183460022621446, 0.0024059982110437683], [-0.007998649716696237, -0.010500741672166278, 0.011770259281684318, -0.012729225720808576, -0.0168989499748514, 0.011765017542387917, 0.010358056331664799, 0.0019402172742042079, 0.00241428886722077, 0.0030792774273291617], [-0.006302523456944732, -0.01397203838159722, 0.013768833857279374, -0.012843779760915362, -0.02708913404003281, 0.013894609850940253, 0.016140694451675392, 0.001059770301815861, 0.003535073920011416, 0.00034069869340989955], [-0.0015215739547569385, -0.009769178474271523, 0.01071758383673672, -0.006444004563989597, -0.02917780882851334, 0.007450069606309932, 0.015236026829473134, -0.000443749410411904, 0.0028538722283227604, -0.0023977045022887293], [-0.0009931141660304088, -0.009849072255087677, 0.010403133330961305, -9.953258148944214e-05, -0.03232576392313116, 0.005435291326458029, 0.015021752889234649, 0.004508456726992129, 0.0036458113811571437, -0.0061950212184940755], [0.001152940656655147, -0.009594140429749643, 0.007665635687762062, 0.001129861427936519, -0.03665374710299627, 0.001731039103226933, 0.02501227273350689, 0.008133841101936826, 0.005898929370070037, -0.007757100940309498], [-0.007674639911797829, -0.011694162592351806, -0.0017623474318190886, 0.010894711473199618, -0.03667586497929003, -0.004581854448452442, 0.041129077696007744, 0.011310590223204948, -0.0012473581927788142, -0.007751043226489228], [-0.011461094670437955, -0.012027062145451047, -0.007154177753024021, 0.01267457825279429, -0.033405818013049766, -0.01249156381859824, 0.05326379058676053, 0.015574471341407862, -0.004997250164627538, -0.01057211571457021], [-0.015924699315719444, -0.01600035679326919, -0.007614881805125926, 0.015524581761739617, -0.030005776460977383, -0.01587160781001025, 0.06138992152522091, 0.018737603310167723, -0.010434585756672079, -0.010860290169325467], [-0.023053032066319566, -0.016131623942505863, -0.014852014848546355, 0.01912131609123358, -0.029953664216966134, -0.019216620502269452, 0.07893045364730741, 0.015609171392556458, -0.013956298160566132, -0.010199129961172275], [-0.03152929712691072, -0.022462256223379922, -0.022911390809535033, 0.01973653013036642, -0.02655891778569522, -0.01904804857132976, 0.09696455962791856, 0.015439675474757731, -0.012280027219675275, -0.009046775196025859], [-0.03132674168961278, -0.030331315018444216, -0.022263675208899394, 0.018735025330351464, -0.02092492208263749, -0.02513709502106664, 0.09999952394102683, 0.016132289481142523, -0.006689697314198429, -0.009372620038250635], [-0.029402417151490886, -0.03003277261159709, -0.01946430251631268, 0.020097960456801404, -0.017864859594002525, -0.025755157662933813, 0.08819837468314634, 0.014989787249987478, 0.005018827966343246, -0.0037473275376999175], [-0.02064618798100842, -0.02298020861140782, -0.015186722921701886, 0.014675553129235429, -0.0158208433403594, -0.02136215432705343, 0.06562089096565643, 0.010974710999903183, 0.006983202948066047, -3.4682283288674695e-05], [-0.011834284600258786, -0.013121800324557176, -0.012356069730782532, 0.00867120741874488, -0.008612585999679291, -0.01351007378566773, 0.03959975815102273, 0.005695927559249513, 0.006721119390934755, 0.0024128226033204225], [-0.005134015518894148, -0.0057034491660577094, -0.007034345269905122, 0.003688696347163886, -0.0048429898618784, -0.007538927720217585, 0.020546444209184198, 0.002861555199674213, 0.004654862492182164, 0.002450174457957434], [-0.0013706405606115609, -0.0035596239690309406, -0.0018322202059249187, 0.0017058281763145328, -0.002358615016320062, -0.0027678675801000928, 0.010569122634898362, 0.00124022254177144, 0.002267146143495449, 0.0016835666204413275], [0.0008272272362871704, -0.0006892905429892533, 0.0010860914837598056, 0.0017161991805293387, 0.0002928291528502099, 0.00039633443707802636, 0.0023430720013078825, 0.0010347481098152648, 0.000525400353195434, 0.0005512971176673372], [0.0012317179436494284, 0.0002272945013840929, 0.0006496910314781227, 0.0007648153656656598, 0.001005269036356043, 0.0007205966763386141, 0.0010551480213344332, 0.0007461783203572762, 0.0003521096000748543, 0.00043261648735837645], [0.00011934046127653859, 0.0011425736244365773, 9.298770918811825e-05, 0.0004604818966390295, 0.0008596507239926231, 0.000497062660185339, 0.0010294046565410765, 0.0001877015614713735, 0.0010649719884698388, 0.00030131876565408345], [0.0005448320296562449, 0.0006434313271680943, 0.0009619385460292338, 0.0007025373389688368, 0.00044915369222740337, 0.0010727089302639224, 0.0007039254681791429, 0.001228603058447862, 0.00018839096829216344, 0.0010900520174406654], [0.00037918839089430144, 0.0007581437497004087, 0.0009170062065438647, 0.0007885166209446029, 0.0008700492509746857, 0.0005659073630872457, 0.0010178112424108477, 0.0008417354225052665, 0.0007681591419843838, 0.0012558829719751404], [0.0005112897717356588, 0.0006930898389026708, 0.00028418976899929915, 0.00011086924394407409, 0.0010866477031373427, 0.0004786674720419677, 0.0005418678212393888, 0.0003623617968371281, 0.0011393002983788934, 0.0009686937624955333], [0.0008210912015564785, 0.0007233920554383287, 0.00047553475879198433, 0.001276900891999891, 0.0006375794228839745, 0.0007303504544801129, 0.0006235120832532982, 0.0010587976874283428, 0.0010326447697995135, 0.0006612672949527132], [-0.00038832417436030013, -0.00011494535279121569, -9.646235128836322e-05, 0.0024699071430938193, 0.0007063918410255898, 0.00042203575635063335, 0.00047053792790193957, -0.00028255403078787243, 0.0001146470900154647, 0.0015910281726941866], [-0.001897593776097287, -0.001031889843644825, 0.0009074675638849312, 0.004585733599585361, -0.0002899190323665132, -0.0005694666074849642, -0.0013426617600428583, -0.00010402333418614516, 0.0007606046012430571, 0.0008625377540228158], [-0.0031605545174515203, -0.0041370635813518354, 0.003747672133342766, 0.002841497113363633, 0.0004886250300508992, -0.002285898457334868, -0.0046827170976063495, 0.002314595210542563, 0.0007028976811017528, 0.0006526706386912875], [-0.00506833978053862, -0.009105003383811252, 0.008104535922179525, 0.002124787584736228, 0.00019700495626210493, -0.00047383852764233084, -0.006844978684320821, 0.0033967312544943584, 0.003142634408305899, 0.0020565256823215678], [-0.007237063949904826, -0.01319408773583889, 0.008833264117028842, 0.0006372178731515714, -5.548919445297416e-05, -0.001762607894216921, -0.007150308834152594, 0.008060303296338315, 0.007808187627192227, 0.0013561938241993343], [-0.013876300821317737, -0.017228547104333063, 0.018158177182726533, 0.00154542737657937, -0.009836553817970278, 0.00349201472614649, -0.00970284221748533, 0.008479251534437876, 0.007789797602738618, 0.0035501047921547976], [-0.013065368517555843, -0.01855179469660052, 0.01890737775712699, 0.007701867698927383, -0.019040574436399924, 0.0037508822183222905, -0.007687485070575885, 0.009826130299925843, 0.00834572405914691, 0.0038171672778555036], [-0.008132255721553319, -0.012349736320740086, 0.01860506967889333, 0.012042601107577058, -0.01488473212118618, -0.0018966561686317134, -0.01807608032501727, 0.009879976137379298, 0.007588219602658175, 0.0059797914470491945], [0.0003396266461093713, -0.0029930721277560512, 0.024936129884773214, 0.0027736143259730105, -0.009376044009981942, -0.00919386151871893, -0.021705274690589138, 0.003837851811754797, 0.002390850988164697, 0.0018820499325882514], [0.006534516168989639, 0.0026962077641892682, 0.022220050584491568, -0.002469691878997619, -0.011382066216074965, -0.014880567389398547, -0.016766569708310988, 0.0016174588713935797, 0.002098341335134519, 0.00731188779248137], [-0.001942391967667061, 0.0016258885106661797, 0.017652849137479654, -0.0032131619393304554, -0.01160394908825237, -0.005618571301592109, -0.009125371101271392, -0.00045358263875632584, -0.002759325814352175, 0.013495660908138411], [0.005944816703835841, 0.0008673019461854139, 0.012761798743939191, 0.0010176794188352192, -0.01473206560666505, -0.0020421112268041173, -0.012254941650144282, -0.003051070700155296, -0.011226094587402364, 0.021312259665656214], [0.0002398785242587677, -0.001648629260372448, 0.02048844876457276, 3.39770332182363e-05, -0.010212745117574263, 0.00407801894295722, -0.012723570018834438, 0.0011079581655912705, -0.020902347442959168, 0.019636779178232717], [-0.001920554189087322, 0.0067160419448742655, 0.008558644481283462, 0.003009852859658053, -0.009950069249729243, -0.00021510381707807232, -0.003168278600913205, 0.003029759040667634, -0.027756992672479035, 0.016187210813873913], [-0.0021435041802586765, 0.0030774695223380237, 0.0013701929585115495, 0.01125802273455463, -0.014112996053995306, -0.0020255051608333487, 0.005691399374348016, 0.004135289307544324, -0.0222039280780679, 0.012552213388932205], [0.00017003605660639357, 0.008871934816404385, -0.007966243906007966, 0.008619042676306981, -0.016360087909747436, -0.012138886961498827, 0.012140156613603814, 0.006474751600056435, -0.020448946251246543, 0.012566234338778863], [-0.006183025412282803, 0.007292322773357543, -0.011064358200919798, 0.005241364324330102, -0.01440385338281864, -0.01583035097687823, 0.019392774132184973, 0.010256209395667628, -0.010393258365013362, 0.00657273432904236], [-0.009838631315143797, 0.002757096056905806, -0.016955372196499046, -0.0009923432549612823, -0.01489857030024449, 0.0006749464392680855, 0.019987565976754936, 0.012997541097190524, -0.009682339507928187, 0.004840015321090234], [-0.016117837202664406, -0.0005125196163866186, -0.01765465359339737, 0.0018500315176485798, -0.0062047007517100315, 0.012659593743339118, 0.014323639074888676, 0.008350314998359329, -0.011204706995976267, 0.004839906338265908], [-0.01602733218160765, -0.006236212809074496, -0.013603107709032244, -0.0006246539636231212, -0.0009140096428459203, 0.021484056481650273, 0.008828424949078041, 0.006639659724849056, -0.009202970824451383, 0.0026011786224220475], [-0.009078736783026623, -0.00797894021466629, -0.00791576967571371, 0.002787975434743309, -0.0018531455205990748, 0.013731882871878038, 0.003962803640738963, 0.003526315907352514, -0.0026641893457422993, 0.003784918281945265], [-0.002438230180432253, -0.0034868689175769022, -0.0016037981241436067, 0.0022852895321584426, -0.0009535960297054659, 0.003931003543422082, 0.0005292405980663698, 0.002331135890684307, 0.00011475853189477565, 0.0017770587760436564], [0.0004351953255495556, -0.00034890705573923265, 0.0010971209161809582, 0.0006736277274224113, -0.0007134936251021089, 0.001500493923626044, 0.0002492639318968406, 0.0010472553939137, 0.001621064461587745, 0.0007132219506899165], [0.0004441267997224543, 8.593221420666098e-05, 0.0008771175862577601, 3.9267921404875265e-05, 0.0008441094226835874, 0.0009063844873120166, 0.0008008424872162523, 0.0006432363487269339, 0.0012782674902240144, 0.00021951730947619], [0.0004482428744738186, 0.00041350112002151745, 0.000420686001696271, 0.0008928854460367459, 0.0005684523546668589, 0.0007567915203089757, 0.0007971384683383159, 0.0005696661550982246, 0.0011285656021013902, 0.0009639552129990474], [0.0004206964897271858, 0.0010245843467592366, 0.00048575475841248453, 0.0008845523796183792, 0.00031029990765162106, 0.0005639102555119906, 0.0011697982971738408, 0.0006314274619051419, 0.0006801630215092149, 0.0006133767551404055], [0.0010026514311818407, 0.00031158859643442633, 0.0004179142013141111, 0.00025685607751458304, 0.0007106350791812843, 0.0003420673224336735, 0.0005647862694267362, 0.0002969115261714778, 0.0005327696379857362, 0.0007062146823128442], [-8.065430240113428e-05, 0.0012601124036147127, -0.00030130171097801796, 0.0025422380009451698, 0.0006835394117058857, 0.0004296335741713858, 1.980890058624351e-05, -3.146109785958644e-05, -0.00032302339242138117, 0.001053232540977655], [0.00014924938589654276, -0.00016737002642773258, -0.0019184829169900848, 0.008033433581009814, 0.0006312431326190647, -0.0031277535201092417, -0.0005979423953096001, 0.00035921039513431096, 0.0010306949476120847, -0.0005623573996749342], [-0.0031640985779196732, -0.0019543057201835182, -1.3460719557906132e-05, 0.015039977404567818, 0.0009347378039430471, -0.008184169718354116, -0.0037259093666908716, 0.003118799628275706, 0.0013267910099358693, -0.002101540295181222], [-0.0017148341252077994, -0.006736054334670427, -0.0008023510440796714, 0.01704724034322725, 0.007897087298721605, -0.010490241841257303, -0.00818269441570905, 0.0037486603124454766, -0.0014551727266336235, -0.002576108976495359], [-0.006438649651081463, -0.012152045085857, 0.005512960872100344, 0.014899017883166542, 0.009657120658974498, -0.006717578539233199, -0.008525981566026361, 0.0038824931438521675, -0.00196599612544103, -0.0012662523216548638], [-0.012225853649209478, -0.010912813540731502, 0.008907745429059737, 0.012523886575062045, 0.0035118828843875606, -0.0036542167753533857, -0.001671721185221885, 0.007384302665787067, -0.006681326447970096, 0.001970281149212927], [-0.014770322646350958, -0.012612070720435678, 0.01398762442972771, 0.013928791579335588, 0.005640618233408741, 0.00012850125894622828, -0.005523542879549588, 0.0038117335170269606, -0.010521553150567135, 0.005841683401004117], [-0.013151138239849813, -0.014358247289344643, 0.014084325162941634, 0.023369056358852752, -0.005940937521483663, 0.002961811309913855, -0.0020775798361960082, 0.005620667488528106, -0.016421494367464273, 0.01042307095443609], [-0.0068638211498281716, -0.010903836804564162, 0.016247966483666876, 0.024430979083157018, -0.016081514270278804, 0.0009759173736131214, -0.017045754159164574, -0.0009925583990332875, -0.013556172779657151, 0.019723807542691853], [-0.0013492153978683862, -0.006942326922272392, 0.011219443515206746, 0.018926461673832756, -0.019778328914203256, -0.01307975200146925, -0.009043828897369465, -0.0003665864938304206, -0.0030926984377579996, 0.014586489678044488], [0.009123632731560133, -0.0003249260238377167, 0.011850415295423666, 0.015461532046531046, -0.014398048773525062, -0.018511356785081045, -0.01562004548635221, -0.0014481500886520272, 0.0035829071607193065, 0.0047713011345537], [0.0056783042125736535, 0.0008408120200360234, 0.010163540641625338, 0.0038940743272212496, -0.002006172710417173, -0.016372003248872984, -0.01090695105021481, 0.006749982265347591, 0.01768444401330137, -0.016271120672287784], [0.0073010059726119425, 0.004923082058348382, 0.009803108949462833, -0.0001240920264831243, 0.005407696171944112, -0.017115993073043016, -0.01275308868632465, 0.012143536354273963, 0.016525839736495098, -0.028199408944427143], [0.0067132987629616205, 0.001287421976036447, 0.004715268175941421, -0.0029383348818662284, 0.010782019551743967, -0.014481384206978427, -0.008960582505501163, 0.010955776514125687, 0.018652052187790327, -0.03438222447928626], [0.0024446213985631266, 0.0010176464615276961, 0.010498294222393323, -0.019947908772667222, 0.007331036692575648, -0.002326050157005206, -0.013013926079647796, 0.01147638745863961, 0.024728434427967995, -0.02816274393474166], [-0.001011241740104173, 0.00451602765353939, 0.0020321112248899383, -0.014441626454115734, 0.004733125825155259, -0.0028192333008878025, -0.00908558173644446, 0.01587024684132246, 0.018040715601383477, -0.019122016258672568], [0.003281921148489918, 0.008677059081134905, -0.0013721485128894804, -0.009923226016976866, -0.000244845586327513, 0.0005963848552114488, -0.013193437404962642, 0.011173056805287922, 0.007368844550999178, -0.009974580953833289], [-0.0034595237915206758, 0.014353533295588337, -0.001125227090779984, -0.016217797729725786, -0.0013663766070657378, 0.019359716897814405, -0.017290743253228016, 0.009479746171550514, -0.004882769010751065, -0.00582701790828461], [-0.007107240064740283, 0.013057172891690711, 0.0008637318495290982, -0.018008049546852502, -0.000561055719984959, 0.025984578261320685, -0.018238685704446707, 0.01400490128262591, -0.012055352861208101, -0.0053792968201985605], [-0.01818806286691872, 0.002913809458478141, -0.0007720585932912258, -0.010474350348571238, 0.0063655016972816066, 0.03958409481941418, -0.014283440901535277, 0.014412980344707222, -0.020489490440996065, -0.005499232839326759], [-0.025287166854331897, -0.004140756103663228, -0.00793771187981534, -0.0030072322429286987, 0.015315132714202977, 0.04578431313246147, -0.00970975644370702, 0.012838822591840767, -0.02441122822726346, -0.007814018129946605], [-0.020431316924399194, -0.012254452468984921, -0.005089604896954443, 0.0008641223345087918, -0.002425037894806844, 0.0394054384178375, -0.004325825265481614, 0.01101748856923227, -0.016058545659776075, -0.0016150734093906601], [-0.0077675743763161225, -0.007973840441919329, -0.0023373250530666764, 0.002967608725710274, -0.005602216238483948, 0.01665148821812723, -0.002666814767486125, 0.002917406255609536, -0.001497989910871132, 0.001512367160034425], [-0.0010950296085303598, -0.0002971586548999189, 0.0007992255075805881, 0.0006223486335043454, -0.0023373972043068797, 0.005794923163949692, -0.00044812109275345726, 0.0011097725496435147, 0.0007676803130485816, 0.0012209897127930364], [0.0007969887585350784, -6.087799545981161e-05, 0.001122781048173956, 0.0005851954745969393, 0.0009410101907391107, 0.0005259705655201194, 0.0013972213070787645, 0.0006642384378989988, 5.4026204367674944e-05, 0.0006391410951889027], [0.0006754863374457995, 0.001163524020720854, 0.0005912147399597298, 0.00033472675847702455, 0.00013598000595649589, 0.00010597855852790254, 0.000262411537902076, 0.0006297383662465755, 0.00012730300891351315, 0.00021284920913379636], [0.00028133150871470405, 0.0005479724487741468, 0.0010092179142807414, 0.0008539264308044267, 0.0008218963888570216, 0.0005355954182746334, 0.0008848158642370105, 0.00018785988782099727, 0.0007120244255621062, 5.40038143010553e-05], [0.0006890124770662997, 1.1807649126576578e-05, 0.00042843283474949074, 0.001548600062596993, 0.0007080170698192552, 4.7322122466160556e-05, 0.0008415476556522363, 0.0015206632122616746, 0.0003505150036990408, 0.0008721947805368896], [0.0012666695816249953, -0.0011109906827531512, -0.001192074488733674, 0.0077638438332778515, -4.397563895985473e-05, -0.002842133754564377, -0.001293078297779195, 0.0011713703138854239, -0.0004706464263753965, -9.896517500392797e-05], [-0.0002520922066832897, -0.0013470874510890262, -0.00454545748385952, 0.017969541210978105, -5.03190379813245e-05, -0.009260302409506963, -0.001009348230085187, 0.00039425120799740346, 0.00016416344567463478, -0.0022052655864370453], [-0.0006523059513191271, -0.005722207463015438, -0.003243720417374135, 0.0185298343015923, 0.0013118321098520157, -0.008467504376260029, -0.005301140646379444, 0.002853490169897022, 0.0015445608932297564, -0.002317837824871107], [0.001012516554280597, -0.010099873939836338, 0.001193152002456768, 0.019289916495239035, 0.002238104949187569, -0.0076864527061050614, -0.008391540169279484, 0.006982127171189389, -0.0028614339291050585, -0.004141549926390936], [-0.001450428432564779, -0.01021615130878669, 0.006305106227647105, 0.012866533078354702, 0.00551764048916044, -0.007972333424305913, -0.0032682548420615953, 0.007005132169089999, -0.010044764574135482, -0.004690920481378248], [-0.0036514682613691288, -0.014876985259857405, 0.007235394245280095, 0.021807193899055194, 0.0021313041313174297, -0.008617086682203514, -0.0019882321563182456, 0.006430940501485629, -0.00802452978099366, -0.002666836628387579], [-0.0067678038755020304, -0.016781152178566378, 0.008854817116808788, 0.02571004602376944, 0.003327111257704626, -0.005589901472535242, -0.0028026636018258864, 0.00014223844063395932, -0.011468392924343507, 0.0014428192576048263], [-0.008286399917898745, -0.01720770867432645, 0.009419976549435632, 0.026534432974669384, -0.0001275810299710469, 0.0013637696254691395, -0.006009699909094028, 0.0007625718619736562, -0.010835857227943892, 0.0026082586262993193], [-0.004847133787450618, -0.010829746315528393, 0.005540134064219563, 0.022021423053086513, -0.011079191876599625, 0.002626240713533981, -0.00843594917974498, -0.002084701860239383, -0.001058576152630619, 0.010810308992705573], [0.0037624086457161226, -0.008777435253108224, 0.007315036624946157, 0.01328092861836046, -0.014598577940101535, -0.0031768643014269734, -0.0059587586710975905, -0.0041391458624835615, 0.003200128262229981, 0.006819286183820773], [0.011907187591181147, -0.002228378455094637, 0.002572996978535494, 0.01208865916368512, -0.023657364051381226, -0.0064084055163531215, -0.012777479362192663, -0.0043820679491474975, 0.0016600532040424653, 0.014323719342258314], [0.007412771046853766, -0.00019535434760745428, 0.001987533634639259, 0.006774097543880044, -0.025671511931452593, 0.003868025890380211, -0.010820453058973377, -7.051324781968526e-05, 0.0003275655843071815, 0.012894879498955309], [0.004866179562196333, -0.007834142078358974, 0.005939491902292479, 0.008098140258827227, -0.020835531406089364, -0.007008323555791508, -0.01084631445182823, -0.005366868136675223, 0.011190336039087444, 0.01456696087341307], [0.004674479763405413, -0.010558680722365706, 0.00595622936983913, 0.010594654839367357, -0.021006043630265658, -0.0070829993435430295, -0.009614672433952557, 0.00011885841142309845, 0.0038321492699853227, 0.021956900204598787], [0.003398485091272724, -0.007736562214940356, 0.005497429804171521, -0.002143733905882477, -0.017623961821309955, -0.0005965586318965841, -0.010065547286569889, -0.0035033183652680897, 0.0077149037618068515, 0.022530465965899825], [0.004471448097470319, 0.002401361843786905, 0.004443583651815045, -0.0010069976179283555, -0.013501086852577691, 0.00510012283553732, -0.01457959629036264, -0.010017796704179743, -0.004221888239799596, 0.022640479561442946], [-0.001208596569061871, 0.004708778652873871, 0.0026480817153480356, -0.007047385307668104, 0.004168397025916025, 0.010421515652282883, -0.020075403176335996, -0.004467111853039531, 0.005469597989628748, 0.005112485210008599], [-0.0006161452302683567, 0.0067539474555041905, -4.600084205973923e-05, -0.001990366089217629, 0.0075798561642269925, 0.016591019734351457, -0.025910025541273342, -0.004602608974353626, -0.0020791833634474072, -0.0005676872443100352], [0.005166675251605664, -0.000970042793883357, 0.00229672899247741, -0.00485389132590611, 0.008267452159961577, 0.014551322957158136, -0.021158955513950833, 0.006436378123975516, 0.0019146679440669011, -0.011639540536971082], [-0.001809243630160979, -0.004456655639847914, 0.002838810784785176, -0.0071778789491411, 0.019171443766343624, 0.025333037448274, -0.01920073117858856, 0.008774562809584467, -0.002902714775713416, -0.01903889153810223], [-0.023161731593459002, -0.00826830243069538, -0.008557675808634924, -0.004678579610452858, 0.022050109235591423, 0.054148415886989806, -0.016444670635353566, 0.004825372242862304, -0.010145678973323, -0.018346325427149444], [-0.03296917996231904, -0.014154098472017781, -0.0020501938302184683, 0.0005927321650107314, -0.002414047497526761, 0.07428217581258477, -0.012738952608377338, 0.004752561714290194, -0.01818985851561676, -0.012751071271224233], [-0.0161275303256081, -0.01186187750387839, -3.393601321333075e-05, 0.005063380679074337, -0.011281920507886517, 0.04142480634668673, -0.005602637842651266, -0.0018199564344299757, -0.006783232965523157, -0.002105404891850669], [-0.003962748750558299, -0.0023926297372565686, 0.001031802429831049, 0.0036215853193632464, -0.002982813947035292, 0.01238038106666328, -0.0020398508621659248, -0.001465277478167178, -0.0021771171496512212, -0.00013622667557890112], [-0.000335165286670248, -0.00036961415258871867, 0.0009370633490549113, 0.0005069730803333674, 0.0005242792258645379, 0.0012783526213406926, 0.0002304432703195565, 0.0006935872907860573, 0.0001395166359124626, 0.0008766272900904109], [0.000690365158348131, 0.0009422487261715835, 0.000918049179627798, 0.001198965779053672, 0.0011020706353583774, 0.00018492653804612339, 0.00010356909155498416, 0.0008747231979132561, 0.0009721428326933121, 0.001208249553335835], [0.0005655589823108539, 0.00019043550451366305, 0.0009015710103508511, 0.0016480031554517874, 0.0011729709391505598, 0.00020609146629259605, 0.0011162010244658127, 0.0006492222855937929, 0.000857117093785153, 0.0002771944377615213], [-7.82484313094339e-05, -2.6210757322854657e-05, 0.0002690270157011899, -0.0005312015072130815, -0.0002995868012778517, 0.00029183505581806263, 0.0007684305939699483, 0.003552901676520398, -0.0008953796710577275, -0.0006469845333767622], [0.0003045172126830401, -0.0018194193210711025, -0.0010295871261477353, 0.007874772944106214, -0.0005342928366788729, -0.0036841004164950173, -0.0009408298429846094, 0.005122946962633364, -0.00196268522982235, -0.002302041736470193], [-0.0005889456117748631, 4.052335157431838e-05, -0.005238838557474586, 0.0197851195864308, 0.0004501767052097212, -0.010844276608984878, -0.002079748486874262, 0.0030189585348001226, 0.0011992873435575798, -0.00474930952408383], [0.0010558898801802745, -0.002964898531690358, -0.0037552398165802163, 0.016429129925196097, 0.0014453281791570582, -0.006992183989565228, -0.006213218218309807, 0.004739763674096895, 0.0024262464687657376, -0.00900025187713228], [0.00305777827810184, -0.007548638579838159, 0.003940357058986293, 0.009423713504520181, -0.0014943124391207658, -0.0021534966284896895, -0.0049498878927589016, 0.011990430698220431, -0.0016338872747979807, -0.0094748137233899], [0.0003526357580951963, -0.004222458420720953, -0.00044418852354540677, -0.0001564547291308115, -0.0006362376674596026, 0.001909545913843295, -0.0013510302488633401, 0.011013663524126678, 0.0015568027479470625, -0.00967979427825803], [-0.0018305961017042979, -0.008489815289333985, 0.0004339455385009467, 0.001211408185872734, -0.0018404409018116785, 0.002181590882865101, -0.0025286859162857223, 0.009819736820271223, 0.0084536096415404, -0.006950288199332255], [0.004478657428269689, -0.007667100794300031, -0.005752056655071328, -0.0010610048204638708, 0.0012179972326068459, 0.0015106728467205333, -0.0013517288579975857, 0.015518342349884357, 0.0048602148303239995, -0.01347019750109833], [-0.0025259829410608703, -0.01115007954846982, -0.0030084572143713917, -0.003331994620366056, 0.0022881417463812203, 0.012607457021784856, -0.007421218733600471, 0.015374629457685267, 0.006878000418184884, -0.013227952155467033], [0.0027115392638299906, -0.012103554518223843, 0.0030785235805468473, -0.004335264441546075, -0.004812943398221667, 0.01264812850771782, -0.005551381391824099, 0.012514805358616335, 0.0028981016469042235, -0.004544430032133619], [0.00903505424140023, -0.0033317390755707014, 0.0009042664090658879, 0.0003414829029073199, -0.016908013258613235, 0.0021447452603421636, -0.006860120498944303, 0.012097596246577599, -0.004672639282470192, 0.009669277931027022], [0.011012240508481867, 0.00727304238268682, 0.001915715378125094, -0.0018897182595390975, -0.021466091822468315, -0.0038073753405535875, -0.01364202000815953, -0.0012134374387212925, -0.006115418394309034, 0.027069223142896635], [0.01609008475663829, 0.0019518867243902074, 0.0016374288740515083, 0.0001928202060240236, -0.0309723676427458, -0.0008630475959734987, -0.013287231825842785, -0.01510243252162946, -0.010428685171193722, 0.05078164357977763], [0.012558572799350399, -0.0048148895144901815, -0.004394275042313031, 0.0037616379951733226, -0.02917397875730262, -0.01266434993859417, -0.005863993499624586, -0.020553305711112357, 0.0029404714286201976, 0.05774352591026882], [0.00708668293131127, -0.0040337035587949465, -0.0008822267618769639, 0.0013758294117790738, -0.01847992812067167, -0.0004692510387235098, -0.012874367784959947, -0.013192474588400427, -0.007473588714497842, 0.047331986435060355], [0.013516265201420467, 0.007398039685321304, -0.005046907505772843, 0.0014974884494382038, -0.009702404849853177, 0.0006868832741179345, -0.013297717210951208, -0.0042423720594794295, -0.014409134480786448, 0.01918661458564393], [0.012129136716171014, 0.00620042206364409, -0.0007705750495334972, -0.007246068303996887, -0.0018161043630926016, 0.003753055883149138, -0.017876596964503267, 0.00257206370041615, 0.0007104782356794295, 0.00014714325278761872], [0.0031295219540762643, 0.007487006906854999, -0.0015914944389440531, 0.000760157542518736, 0.0035775683291157795, 0.003641666000599203, -0.013663221108083356, 0.010929332588192175, -0.010365272856802095, -0.007138245471253596], [-0.006723976530953989, 0.0030544321506424032, -0.0014515150242009269, 0.007188256427266992, -0.0014214276379192726, 0.0026866777844588388, -0.009653713972899377, 0.012429418563214457, 0.0033318754904458786, -0.004071222427065335], [-0.0018215845562148379, -0.0024046557200870307, 0.007113967315726583, 0.0007424344286154272, 0.003120914214404058, 0.0010197000788781426, -0.010411212751583649, 0.0061020686787974085, 0.005925042675408705, -0.008878019150023146], [0.004613088078707198, 0.0022160524546715873, 0.009827705560670807, -0.0038442239691684208, 0.00952064292628119, -0.006048791040890216, -0.012778771969974186, 0.008469391623872216, 0.005510648116713336, -0.013796743174331565], [-0.01596171786979125, -0.007935795278492532, -0.007643485136704884, -0.0033876664853917772, 0.006686458158813271, 0.043329996957213186, -0.010320538975873013, -0.0004353751956294948, 0.009933060195572253, -0.016743930087139577], [-0.042104581251382035, -0.015656978633718486, -0.005749345970092273, -0.001986773786624957, -0.017210388092720737, 0.1007913588242499, -0.011444169335805875, -0.007453594406099476, -0.00613854446411198, -0.012074457386221621], [-0.026862781953947326, -0.01338071282198363, 0.0004422877322647608, 0.0066057126156726514, -0.021388702361822835, 0.07260568023930346, -0.008232672006668938, -0.008048766831049116, -0.013606157400314109, -0.0027335531125961773], [-0.006683855849416822, -0.003774154515012234, 0.0009282005843702788, 0.004229491871560043, -0.005998980454574509, 0.017995022009141617, -0.002089802096128906, -0.0010138915683539573, -0.0029226270000507594, -0.0003563513330969595], [0.00041849578664911494, 9.814549203056706e-05, 0.00021988009030845723, 0.0005973012099568586, 0.0001528117291042422, 0.0011617619803647545, 0.000308563429887928, 0.0007505284870042622, 0.0007070310331310116, 0.0006801085328132238], [0.0008381793427973516, 0.0008027041707739691, 0.000996487497080794, 0.0006476990857706013, -2.520366552938668e-05, 0.0007797471887852549, 0.00022099530876540968, 7.120101663998451e-05, 0.0007886834651734652, 0.0010863414939654844], [0.0010915200180414248, 0.0006642921273764163, 0.00039389041580959995, -0.0004232428915934448, 0.0003416040342745525, 0.0009935574827263816, 0.0004445246091126896, 0.003072202815586356, 0.0002530884101813631, -0.0009867268437789073], [-0.000902908970251209, 0.00012240611156894238, -0.00033445481755441174, -0.00516351021179634, -0.00033723226101566684, 0.0010725127027559063, 0.0006098315964689295, 0.010880188565757074, -0.001124881642655731, -0.0032562281447984466], [-0.003620021724834893, -0.0015282418837540516, -0.003543981365149458, 0.0023336216977249886, 0.0005270729510230989, -0.002441238516616861, 0.0007276739099012499, 0.013273138122112678, -0.0030884639905304715, -0.007729373455364505], [-0.004459754881769872, -0.0003315428775278365, -0.006204467869704086, 0.014972972135805687, 0.0036738581687301088, -0.010427741846255563, -0.004682807457768227, 0.008951632767927752, 0.002218276500199345, -0.010168934959927552], [-0.002302608946405513, -0.004732235780887986, -0.0030141192569715157, 0.010646627336523619, 0.00783746720800388, -0.0007310821878316309, -0.005327542530166318, 0.009706424717955239, 0.004927419860340757, -0.016530766866002244], [0.004419317415119563, -0.004439917099442296, 0.0011586066306792523, -0.0007647230631911786, 0.0016103576866518042, -0.00023409669240132976, -0.004268232259226527, 0.009604542207532773, 0.009067845141930918, -0.010763267765512815], [0.00031735424521222764, -0.005654360330461257, -0.004920370742819233, -0.010929637017128303, 0.004084923670457142, 0.003430238477901077, -0.0020608599670705954, 0.019431501225343793, 0.0129206913915382, -0.015771297705519098], [0.0012908895280091194, -0.007598152127937333, -0.003088391893289459, -0.01860077211334619, 0.0006523850637532114, 0.009325734131398694, -0.0006103326315265292, 0.019151075590078944, 0.004779700802259466, -0.008722885363299756], [0.001685097884596603, -0.007206653856718057, -0.004613798711160453, -0.011845718048901601, 0.012432676902540888, 0.001171068848908754, -0.0013885534685573807, 0.019819258611322586, 0.013007630840719188, -0.01890730610896879], [0.0005425121132372103, -0.010038313010702276, -0.0011562504064911755, -0.009540134136819345, 0.007307173534042047, 0.0018087851277154522, -0.0065351224388278005, 0.019986385146749105, 0.009698654671780325, -0.01638571349924483], [-0.0025263372436981966, -0.015803148532849084, -0.0025587294139874247, -0.003641038722238478, 0.0018158059866314733, 0.01187292830619756, 0.0009973433415893672, 0.020522174277900956, 0.0017260476598771066, -0.013084784005739728], [0.0026672969475162412, -0.010383726664910043, -0.0013757074817649041, 0.004506637612514638, -0.012891711260140324, 0.0014790493469883444, -0.0075882209208755205, 0.01719509024504691, 0.006875775773032617, 0.0006804401467475253], [0.005369791166051758, 0.009174855643110713, -0.00033046788409539713, 0.00039240661772658254, -0.020713463240895454, -0.008423521957671815, -0.010618366974349168, 0.008146554988124471, 0.0030769183558375453, 0.014451776756270745], [0.010106908087340855, 0.005687264566083629, 0.010126402571427759, -0.0030629339538738834, -0.028498305726720064, -0.0034954775696200667, -0.011015188982629733, 0.005874126842721102, -0.00740899682767796, 0.017511448573049024], [0.012557802457494407, 0.003327229662135659, 0.0019339615911893953, -0.005514899914193302, -0.021453771999288482, 0.0022087044705037025, -0.013041843822196551, 0.004941804618630789, -0.0005318135232911997, 0.015103818114678095], [0.017532910203475645, 0.005137817531585384, -0.007523199691470616, -0.0036632682289171807, -0.017456488049127052, 0.0020428015948216575, -0.015124836049378209, 0.002254263921972951, 0.0011958368502028853, 0.015616684066568952], [0.010729944438253534, 0.016261044297239683, -0.0008605895395574076, -4.1764006885039266e-05, -0.005165625798970451, 0.002491020322442206, -0.01731434406460654, 0.004988003405942986, -0.014333578006455261, 0.0019409300627096315], [0.006819709810630038, 0.007246084080071418, -0.0022823646045988097, 0.00934431804067421, 0.0038592014505298314, -0.001855986837432176, -0.02033532680879891, 0.00036749765917572447, -0.005824008961083521, -0.00045781360423204857], [0.005164536321762068, -0.0020657035288042147, 0.00023542228363117302, 0.008273780357627904, 0.003530893552141958, -0.001047365105039459, -0.014547638473610559, 0.0050603994354328505, 0.006618831367594857, -0.008491752501956268], [0.0037791394631933556, -0.006600659655899687, 0.0014081059299274586, 0.006977430343437471, 0.004553613765703223, 0.008301114459885591, -0.014949568079846988, -0.000548565284192456, -0.0030183749558938284, 0.0009515277376969042], [-0.007252851324900301, -0.003983563615171648, 0.0034504330588126775, 0.00620472454625372, 0.0033069912750806354, 0.005145182428239714, -0.00921968328857396, -0.001997857717480079, 0.0013139175021608957, 0.001899199176573112], [0.001963705958868531, -0.002492930753821792, 0.00480405309424886, 0.005863443501533371, 0.0019185232278752207, -0.01430924303012036, -0.009122436433122263, 0.010048277574461213, 0.01265768448064658, -0.003215232705800905], [-0.007744091481127105, -0.010371646523631125, -0.00954844534607351, -0.006274017771608431, -0.009920838812130876, 0.03727927255343254, -0.008241650748793166, 0.0007358977375158044, 0.01681125626777501, -0.006536064113588116], [-0.04410290646163204, -0.018465688981273376, -0.015526798648377476, -0.0002834872107213396, -0.023377956644527888, 0.11695825843633291, -0.013924391536677795, -0.016473666709722733, -0.001638135753495363, -0.00663964683754772], [-0.03547031891336634, -0.017894370793723167, -0.004134314819676485, 0.004240059274255466, -0.025879967314911677, 0.09723742929665612, -0.007747895945967763, -0.013629501838236448, -0.015025000767609925, -0.0012280862892960027], [-0.008051340472044591, -0.0038360968193599525, 0.0022985523225508794, 0.00444460912950065, -0.006522353965852687, 0.020251529260575277, -0.0020926191312439116, -0.002069952889505926, -0.001362608174119369, -3.389176828754558e-05], [3.761985996898514e-05, 0.0006634650060424121, 0.0008792255822174174, 0.0005222301582612683, -0.00017598710200232998, 0.0017718419484364506, 6.234920699710799e-06, -0.00029753401339676234, 0.0007653719453979635, 0.0009928061382966432], [0.0009588156687289704, 0.0006391424934587514, 0.0006484464915268781, 0.001059344467828706, -0.00010841824401480155, 0.0008441040191466226, 0.0009569070019344405, 0.0010669788380546202, 0.0008037256140078191, 0.0001309441345912814], [-1.4664125395477802e-05, 0.0009628734073268831, 0.00041091384943551786, -0.00048021558594613393, -5.932235897643759e-05, 0.0006509398779089289, 0.0011860505909675383, 0.004720820630603044, 9.090919040138142e-05, -0.0013334075296274812], [-0.002360456173431974, -0.0010960455983414867, -0.001432169682592688, -0.005700069941490033, 0.0002710880025164048, 0.0020697115750442454, 0.001768405292747125, 0.013610155299509596, -0.002457852142125595, -0.004948097414925891], [-0.005018295923817462, -0.001988045361201289, -0.002462861111895784, -0.0027740304057643494, -0.0008665655739873769, -0.0006904577527520691, 0.0005317519485057839, 0.020740000372257386, -0.0050972017765919305, -0.009670244269038878], [-0.007376198593731469, -0.0017348810414293584, 0.0006706755075745255, 0.004813671548772932, 0.0027477110845707856, -0.005663602201558897, -0.002835679015807089, 0.022998477232639654, -0.0016102716768277873, -0.019901234837211866], [-0.004787346709282131, -0.005910124361337302, 0.0042733257989929435, 0.001470433385627695, 0.004274981353582566, 0.002281210068374666, -0.005161386702993239, 0.021099668273583835, 0.006424647696720797, -0.020996533858318882], [0.000857621321454095, -0.00368341385962716, -0.002762842625567698, -7.507697157100618e-05, 0.0011943772775687672, 0.0016499523577415288, 0.0007044698258973635, 0.009175459262216893, 0.011808203950170695, -0.010977944161687483], [0.0018779635385013358, 0.0005256066976438392, -0.011434145507754024, -0.008077191010309742, 0.0033948529526852448, 0.0024208084069984107, 0.005914699417608515, 0.013737687816910794, 0.009284566640434958, -0.01780250326280917], [0.0017672830728892568, -0.005036649716745201, -0.012484059123895747, -0.01725130016271575, 0.0001008853970443632, 0.012200510364177448, 0.0019891077348562053, 0.018455135013562045, 0.012527064640502707, -0.014628386325131647], [0.0020735953326759126, -0.0038382369192203245, -0.010225370529336244, -0.01752573691955081, 0.0031700290363112066, 0.004410332900480171, -0.004431928623226245, 0.017539093830487247, 0.015682493257002047, -0.009221598745667322], [0.0016898930396888026, -0.008238782977511122, -0.005679544368406449, -0.013165334855061816, -0.0011245674053230873, 0.0015959367438329306, -0.0007817537713491058, 0.012182308681751575, 0.012456400425251422, -0.0009710999865653674], [-0.007057110170843223, -0.016413989433867134, -0.004211685327028048, -0.012093087974860452, -0.01186926579741291, 0.017427019222094976, -0.0020361397831629, 0.019371852733980528, 0.00818885793552298, 0.0034429110707370433], [-0.0003285573612039583, -0.015088989135137463, -0.004747844828300462, -0.005084271893853439, -0.008156455551996091, 0.000536872957863511, 0.001360438467861028, 0.028296335075365744, 0.0035997619958555317, -6.714986332340879e-06], [0.009165962651887183, 0.007092785219641859, -0.00014864274399319083, -0.0068451230121429115, -0.01476296976161513, -0.0036085176100973736, 0.00017434034868435904, 0.02913151599769706, -0.010763138481659657, -0.010433116271898264], [0.011586743268993815, 0.017323816620136503, 0.007943325389924288, -0.00494775297476806, -0.029335494101268476, -0.008278026367197516, -0.00557538279419683, 0.029823631518101787, -0.015730540984191535, -0.007166834837254233], [0.014985562310622393, 0.010264780738118604, 0.006863368693422291, -8.768210553970396e-05, -0.016383759735696987, -0.009183100902627276, -0.018234991717429375, 0.02877891577651558, -0.011023803908151013, -0.006769356073416921], [0.010249317252596675, 0.002084811044702282, 0.000778397059714158, 0.003834430597463019, -0.007930745914429075, -0.008736015953966853, -0.019593231776631706, 0.02742122887913309, -0.0054743771852810265, -0.009522846059302386], [0.007466376265073891, 0.003281992176220624, 0.0012685798853433775, 0.004284399870097904, 0.003265987424499027, -0.004751337292586545, -0.022114643216076167, 0.015735347783214247, -0.004526328765720716, -0.006196635211603482], [0.007057466851568464, -0.0005576332036846194, 0.0023255408492354004, 0.009618504813017638, 0.0058909078396547805, -0.0017795137649418186, -0.02182495039421174, 0.007099860353692387, -0.009326890472038923, 0.0022922189171843345], [0.012578470980453092, -0.006273610012180956, -0.0011782099194825105, 0.0057441758406672734, 0.0010055128503920802, -0.001584397268081651, -0.018035576721753786, 0.006285790784934286, 0.003970147024985605, -0.0021912112815458008], [0.011969626358216932, -0.007694662949470627, -0.01043498215857817, 0.011207591310921102, 0.0062854778544283, -0.00490907536580222, -0.016174076358943947, -0.002587270782609439, 0.003996211011128699, 0.0020490826821234222], [0.0024101451715661804, -0.003977144458424325, -0.00732124943387569, 0.00416532301437008, 0.0064799284689833255, 0.0032135025386367047, -0.01126497955542126, 0.004020588114238576, 0.00943824770833805, -0.006011668380893807], [0.0003982013768696455, -0.003606095399676519, 0.0028774290798387805, 0.007200367773927203, 0.0029658379481548917, -0.009427738679785417, -0.014413823395329178, 0.010403131622655831, 0.017521247340339392, -0.005012535563321071], [0.003360284307362205, -0.011637931301075717, -0.005224969203152023, -0.0007814088712294571, -0.015530404123916899, 0.017089331788103193, -0.013916360803593745, 0.002845607182319917, 0.026858746759161358, -0.005372258956242122], [-0.03433793312147631, -0.018858259843215062, -0.01261544689703105, 0.004915353661628198, -0.02583479813843495, 0.10296627940225679, -0.01618039343928298, -0.012306157739273956, 0.004944617146500557, -0.009907193603384486], [-0.03600131645565409, -0.015891894000416528, -0.005510328076308318, 0.007798724337174859, -0.02038876402007872, 0.09499021579038275, -0.006887261911494904, -0.011818518808845251, -0.011158586977782268, -0.007783600411060004], [-0.007290868650240157, -0.003681780768728599, 0.0003294085149583207, 0.004891181191869744, -0.00566028456130954, 0.019079713520120844, -0.002209689054967453, -0.002493850703664338, 0.0005564546495837089, -0.0019111228531254502], [0.0005915553021327408, -0.0001366662788571564, 0.00017645383534990714, 0.001429837881412209, 0.00018430886882155498, 0.0022270838768290347, 0.00018534267248559384, 0.0005035751857979905, 0.00019439607428001603, 0.0007191469877753737], [0.0001305552722022338, 0.000826666147011832, 0.0011795954432691218, 0.000865654438184533, 0.00019219461593087339, 0.0003579179153356878, 0.0007611679591757731, 0.0016282546338544871, 0.0002637754979308732, 0.00025744058464070694], [0.00023702275384064454, -0.00047321716238218046, -0.00012266077552593597, -0.0010439581737425828, 0.0005935673010940398, 0.00014218757855666758, 0.0009709109082675948, 0.005109743250496727, 0.0002591593741717467, -0.0019837178142049446], [-0.0020329085899867512, -0.0019274807121103287, -0.00089017630109733, -0.004611060075314325, 0.0007102174594721556, 7.125388634238205e-05, 0.0015407247604069477, 0.015110633267769487, -0.0029825091943667865, -0.007176365160479262], [-0.0063576462906573174, -0.0033867789487348134, 0.0020184005026467285, 0.0002705023009335451, 0.0003925610859417784, -0.00096289672025976, 0.0007323673390552381, 0.02577350697363622, -0.00855232119490618, -0.015448901841175878], [-0.00832047931310269, -0.003935041386920558, 0.0036174692880310065, -0.0010073319106342483, 0.0006594683366262455, -0.00211526758545394, -5.452071654487835e-05, 0.033321394221596606, -0.0003323349931296654, -0.02597753935735952], [-0.007699887896894251, -0.005412435111632968, 0.007186261896073976, -0.005658182798279941, -0.0025961877411508827, 0.0034340390495552395, -0.0039395161965280505, 0.02349478932114205, 0.00624927882455051, -0.01699362201703014], [-0.0030877211975717154, -0.005417015080830122, 0.0013079091683433181, -0.007891869408774786, -0.004412560413631713, -0.0005519371166267811, 0.0005115247023928006, 0.010272762419095059, 0.01422027064167556, -0.006076500101152286], [-0.001781000186917013, -0.00017247655332196533, -0.010136005373880277, -0.009744385041093139, 0.002839678719381756, 0.003273386825276446, 0.004847784392228978, 0.010530610749236464, 0.01086591654903475, -0.008176300184044461], [-0.0026218945294185655, -0.0026514682822716224, -0.00460342417321268, -0.014003756757571822, -0.004442870056080885, 0.008393139771021636, 0.00021063639734697132, 0.004888072746063762, 0.01152753719726904, 0.006426564827314913], [0.006149991316080808, -0.0035633577263172326, -0.0031328879419895215, -0.020333560173736526, -0.0005278021972477467, 0.011959345043264319, -0.006841148675862601, 0.001916701687137846, 0.01050047334542966, 0.004786218186127003], [0.0014406316080010808, -0.0069740020122441805, -0.0048572059975855834, -0.023314781434889485, -0.003410107735679432, 0.006963607798811307, -0.0016142224671973923, 0.0006923478679092385, 0.020169677940555058, 0.015166767130389017], [0.00441348244301276, -0.013904151628294151, -0.0038990824534083646, -0.02732906866822195, -0.004923200766509238, 0.019719212507224127, -0.006120727253024225, -0.001404030398224358, 0.016593079790027443, 0.015096989358055254], [0.0041413945341717, -0.01866274542183198, -0.007078402418004981, -0.018480762718955702, 0.008955667929013405, 0.013263313740224558, 0.0002732934283987003, 0.0028464294223649474, 0.012084422206209436, -0.002231083872185974], [0.006587048897030726, -0.0019350963340976943, -0.006476025434955334, -0.005821984233279467, -0.003189701980900262, 0.0068319968357905825, 0.00952703858064495, 0.016717207330145128, -0.00973120274797164, -0.011115449791458783], [0.00605709527234244, 0.034831768598064694, 0.00010829852944975894, 0.010199744589180482, -0.01275128304855983, -0.008027075347072843, -0.008280316156316962, 0.013466363300714167, -0.02844932045782582, -0.012398819965546693], [0.011135254837130588, 0.025982829077486114, 0.0003466318920528945, 0.018466355374682775, -0.006228048224853488, -0.01734954397439803, -0.01831039261511638, 0.01696627492658552, -0.02423433325164353, -0.0056668670394601954], [0.009322499869082845, -0.011139709534070709, 0.005587267819275411, 0.020336001985244156, -0.003207900287908859, -0.019121738911302803, -0.020312178706570205, 0.02773412643319201, -0.013284387174806369, 0.0006579069957847977], [0.015005539279066893, -0.0027977392037837946, 0.0036406067954469256, 0.005260337950795131, 0.008028316961898171, -0.02679079521362266, -0.020132291601557, 0.017228832039983363, -0.00596578876810686, -0.0015114757226066342], [0.014551685290117293, -0.006732272490841132, 0.006617700671843508, 0.005112621071697102, -0.004275375043592395, -0.02087415788339507, -0.01680173446056534, 0.010241642466867339, 0.006547530581300305, 0.00390405627004528], [0.013430019598538014, -0.005532298666667711, 0.0014562594848504563, 0.005011375120561918, 0.0019229212390552439, -0.024171104134686507, -0.024910348038046013, 0.013514437992038083, 0.014197083409441438, 0.005334054821247779], [0.02399740367856668, -0.003329929585148469, -0.005585387017256381, 0.005612946094062951, 0.0015514570142584662, -0.023373828402682036, -0.018264917065380658, 0.006254160019369064, 0.00652788442405581, -0.0018495712060467343], [0.015696883874128757, -0.0026688261955390416, -0.0004043826345036799, 0.004152670262500486, 0.004349152983690667, -0.022912674468383097, -0.019530674856529356, 0.008842702684440273, 0.017135920564344015, -0.007091368303795355], [0.015719635509231705, -0.0004761561485335115, 0.0016909050088723709, 0.002275468748695053, 0.0019015586175538557, -0.03562327014902778, -0.023191504565314134, 0.015603564097195466, 0.029234468777568252, -0.0007128513179155894], [0.02152336498450857, -0.005125881296138586, 0.0015493691295288248, 0.0005235699406228635, -0.012153588998369802, -0.024147168293042233, -0.021025371242397128, 0.007661197145252785, 0.033515442652425176, 0.001995903201082804], [-0.016715163768579035, -0.012853110307142611, 5.436624991219164e-05, 0.013725799921746053, -0.01447348230345195, 0.040330698080773136, -0.01817238797931742, -0.002277865546494038, 0.014448922386198559, -0.009564708346584221], [-0.027945423797527808, -0.010124785486739174, -0.005220842381878574, 0.00957608520659361, -0.011352950331722242, 0.06684962122945763, -0.008925936910856292, -0.006677930098736107, -0.0013795721113896247, -0.012028718271617106], [-0.006474774281775404, -0.003086593924895263, -0.0002306865732429917, 0.0038591129602966547, -0.003612441561929918, 0.0173499756969346, -0.0025163826675860387, -0.0007126358986548057, 0.0005397957399654994, -0.0028242398668061916], [4.836553966846456e-05, 9.561393433067557e-05, 0.00023200262397246325, 0.0010231457228206703, 0.0003405640244170914, 0.0013461562014916602, -0.00028942640082294907, 0.0008034644860847754, 0.001704836112390397, -0.0005041882915911793], [0.0006340403588083264, 0.0002346681218151961, 0.0011557557780629306, 0.0009900071239558085, 0.0011984356675538031, 0.0007005705674739765, 0.0012371975853614223, 0.001136955035045693, 0.0012016480172268057, 0.00026269712726487355], [0.0010881195569508444, 3.161878761265106e-05, 0.0010199739164410899, -4.122355194160131e-05, -0.00028429354962057683, -0.0009138293729118675, -0.00019064999319975078, 0.00533353186354359, -0.000525893381017167, -0.0015861883877621532], [-0.00220081465038137, -0.0010884282115337252, 0.001556006900271222, -0.002896026596968521, -0.0006343945818462087, -0.0016471295965606251, 0.0010288577668039732, 0.01771493993425029, -0.0027877515080267576, -0.009111980385285238], [-0.006452278687206685, -0.0036446329853335848, 0.006126759280089466, -0.0012565925978315477, -0.0009932581250340713, -0.0027705624412928376, 0.0012302269713951948, 0.02953101167890706, -0.006340954951670533, -0.01884176431195492], [-0.013592508645294321, -0.004376012483002246, 0.01076418324913462, -0.004785628908675795, -0.00388183532083176, 0.0004889536800342466, 0.00010126838718062696, 0.03353698012167326, -0.0019983212738220856, -0.020305409408302406], [-0.013751421155985459, -0.004116389443601548, 0.005826630089524524, -0.01033052334398027, -0.009233360103643473, 0.007774542672349389, -0.0009018760431948726, 0.014175515978571498, 0.008474111543396553, 0.0025581211968001396], [-0.004052441286260549, -0.0024770852335009876, -0.010260312442301132, -0.011481982557339582, -0.011806250263166732, 0.009684803015748875, 0.0045817085761853515, 0.006763467776637556, 0.015288476917335267, 0.005533426260798745], [0.002352679097202562, -0.0011616589465690452, -0.006015830704445172, -0.019141778115014454, -0.012955226384769576, 0.010246651148971959, 0.0038277820980711767, 0.0012844501946705869, 0.016454412155991572, 0.016145293646578577], [0.002946912211922732, -0.00045858096095419094, -0.004633626392917391, -0.0196749081437619, -0.006802686618588436, 0.0054910986844393375, -0.0038381705962264537, -0.00701288902011731, 0.011538168279035864, 0.019425215456709062], [0.0019176645092913, -0.005577970344528591, -0.009839811893612658, -0.01923860356112622, -0.00617382540336702, 0.012535550840067277, 0.0033427767097421266, -0.005878659297723224, 0.014434271046270373, 0.014398411798935725], [0.007017907964787576, -0.0033398110936319145, -0.010637394827364335, -0.02556921243083526, 0.0036600970122770294, 0.00633101234093276, -0.003124650129853275, -0.0029097341173810296, 0.017332752637769802, 0.013303459948516838], [0.004202702577477084, -0.010429326070390038, -0.014188328897144333, -0.027428512698731873, 0.014793436636472047, 0.015189144595102212, -0.006846882078116758, -0.003946059589040393, 0.026663515704773384, 0.0027066561664869032], [-0.003741508300864359, -0.02860230335378696, -0.019810584699492206, -0.018820427169013935, 0.013934845394587841, 0.013298910378068855, 0.004143212520488569, -0.0012274024627787071, 0.03705424833889474, 0.0017272869128633747], [-0.0029583381290888416, -0.019093588663815504, -0.02519821726547869, -0.0009717677206733152, -0.003148480052202031, 0.01469920874187685, 0.012843693021987849, 0.003384153285463451, 0.02447283699998338, 0.00045241518833654163], [-0.017586433445015884, 0.05695428629388153, -0.027186439160883903, 0.027101513865133986, -0.007757066886470124, -0.005653713133576081, -0.009121888327189465, -0.012462912372599656, -0.013644273199943978, -0.004236107437648874], [-0.011492393432636768, 0.03484669598175858, -0.003941215315107485, 0.034493470988570266, 0.0026323237226858684, -0.0189284968696795, -0.024059518426803924, -0.0019127199441563941, -0.023221787084847085, 0.008828202848645172], [-0.0068341915210431954, -0.024924498369056452, 0.007889494316702448, 0.020969802050405113, 0.02258172613001461, -0.014245611359854572, -0.005774302691623116, 0.012000259124065412, -0.010878837216214276, 0.005409852362578383], [0.0027405560932361695, -0.009687886827494436, -0.0031624421076334665, 0.009007899468906668, 0.01213505884697872, -0.027895605939205086, -0.011873254671552733, 0.010656121150158434, 0.0025301924587298316, 0.011044778112731482], [0.004898116217065617, 0.0020506615015334715, -0.0019492664147044746, 0.0014739358158315187, 0.001106943769559264, -0.030354274078594513, -0.011378562438393634, 0.015980048677572602, 0.017489001896433442, 0.004444546312203683], [0.012922120048041068, -0.001221132188436797, 0.003850902500897863, 0.001887907747992608, 0.0031992501701024315, -0.03527372865161639, -0.014705269138948356, 0.0061440342541055765, 0.013391805139241758, 0.009491925183078816], [0.01755732931561209, 0.0009127955133382125, -0.0017696804554522478, 0.002352138723574879, -0.003859563063863664, -0.03694531561466556, -0.011411269813866405, 0.004845357345701706, 0.009886677980956549, 0.01818313135286005], [0.017937629849545035, 0.0056035735443121445, 0.0017380292731171787, -0.011619341499082399, -0.003760621724751065, -0.03324744233875697, -0.007847694651881749, 0.004891872379417268, 0.014556956083806857, 0.011601864151014529], [0.023913126327123946, 0.006132393923290419, 0.0011676488360843904, -0.007004364571838597, -0.0070947377862198326, -0.05135452615039667, -0.014715085750418284, 0.006363223253929006, 0.022174628823963958, 0.017698956070187764], [0.0374529725396456, 0.0033516645289856416, -0.003199953968620131, -0.002212869189404446, -0.007444540715330891, -0.053119395015730014, -0.01262830498334824, -0.003169711265910307, 0.02396311456256033, 0.011843441160145234], [0.005140710801916277, -0.0031099507185674917, 0.004100094575859219, 0.008394763401311308, -0.008213197344750638, -0.020486398189548904, -0.012090897731203651, -0.00027638022722032947, 0.01948938875224893, 0.001072067452722627], [-0.015298750799050792, -0.005967909406339116, 0.0012050722911232349, 0.006840900101627607, -0.006947460303890675, 0.02777141753136654, -0.006064508233484822, -0.004013967509856749, 0.007163931599420887, -0.007650257683635659], [-0.0032836443257894363, -0.00022447718508966609, 0.0011007046048330774, 0.0026781648475814376, -0.0012300947606324166, 0.008808831128701457, -0.002252430713485994, -0.0008271796999854424, 0.0041693714881228675, -0.0017959137013929918], [0.0010507537797620644, 0.0005804445142079055, 0.0007012809806851175, 0.00029806436631954426, 0.00018427808084696252, 0.0010422432426514788, 0.00043772050598523733, 0.0005177589424005126, 0.00039434878095313814, 0.0010368620854188076], [6.969022168686729e-05, 0.00020885801485362205, 0.0010764145788839778, 0.0012060006955297137, 0.0011139564700385492, 0.00010788362674505921, 0.0008751074747139566, 0.001048232520889484, 0.0003798649169954451, 0.0008962783894529357], [0.0011986719397199023, 0.00018620191328469872, 0.0006997625407484474, 4.95519292961885e-05, -0.00031733975961285355, -0.0005849783820401713, 3.601402173271707e-05, 0.004211292804095171, -0.00016066166454511253, -0.0012689919015295649], [-0.0015816023888815002, -0.0016658211444956713, 0.002963477266035659, -0.002043924165160184, -0.0011365641374669712, -0.0026857825696927446, 0.0010534018288056017, 0.014849093694787856, -0.001201750144505019, -0.0077267448428246475], [-0.00625137332769488, -0.0033988064269413966, 0.006550954816272188, -0.005922927846768684, -0.004817782945011739, -0.001345718530908216, -0.00033290855531505905, 0.028195113926254147, -0.001958285221906565, -0.013719381659680376], [-0.016022673026893367, -0.007189974321955328, 0.011266314795821917, -0.008235301092880247, -0.013301617456009907, 0.005591349053911232, -0.002937662392744419, 0.026227744425255762, 0.0005370814525432857, -0.0029241601888341765], [-0.011748216378400506, -0.005735049054323304, -0.006548682773275195, -0.008766076625639312, -0.014665520549447609, 0.015660774606104953, -0.0026426878984248973, 0.002311961254046606, 0.005249797457426382, 0.01935160167387122], [-9.361782936136071e-05, 0.000649947812673422, -0.01992247713567598, -0.011585739889160868, -0.010898365006212574, 0.019685946747147468, 0.005964302832985953, -0.007780340086048433, 0.003105026806482144, 0.023679411523304574], [0.0006971333603038279, 0.003244854562044289, -0.010522782433570714, -0.01591466797912668, -0.00598200452518176, 0.012093520409197136, 0.0022151286527424315, -0.004640834428252066, -0.0014777215717172757, 0.020946970866133507], [0.0017751109554494874, 0.0020577069601528815, -0.006521217494448357, -0.012925574630360558, -0.001185533128019178, 0.01214910302188087, -0.0010221967725463602, -0.006876736639976517, -0.004733917663586197, 0.015371364229117822], [0.0024134058835497646, -0.006448887015363767, -0.014307102839959614, -0.008515510922467539, 0.00594325936787051, 0.006065396044358127, 0.0012959142407288717, -0.012574765075833603, 0.006575094909462993, 0.016129189295401285], [0.007534658032647506, -0.004263262518485629, -0.015226264938353124, -0.0035054125266665336, 0.013882882102523189, 0.01273978843858152, -0.009627775034946249, -0.01211203714470362, 0.003056246722721275, 0.008585247534257481], [-0.004180441877063577, -0.0059911367756032815, -0.02749667443892335, -0.007163032594250899, 0.013605793064609252, 0.02101995864644164, 0.0046090094357240825, -0.008906165771134827, 0.010010303921138287, -0.005181894794589945], [-0.0014755030310168319, -0.04652687652781363, -0.02767368444468133, 0.009067445793238338, -0.0021997136370673367, 0.019024517727645497, 0.01789947299862411, -0.009179859868588153, 0.03980804358398777, -0.004427113643326167], [-0.011480669812731563, -0.021696835771143473, -0.02902269818504036, 0.01684817133184615, 0.010746084708020048, 0.018904035913641242, 0.0069466286145220485, -0.010178963082658646, 0.035055624362256586, -0.0018217232780478616], [-0.03086752715665482, 0.098509658088329, -0.03778623585966381, 0.022953148203665428, -0.016566924094336282, 0.0005326607850455543, -0.0164033707862367, -0.03855185525395249, -0.009744060457482717, -0.0006716133091964943], [-0.019563830840395174, 0.016250555007672904, -0.0047371619233421295, 0.013552418844774134, -0.00046376394502846495, -0.003949209522376637, -0.004069775619223766, -0.00944183300634001, 0.002617926160207299, 0.014664992843841922], [-0.016534784242583016, -0.03310656386565292, -0.003852633088076938, 0.017000307640288974, 0.01700967791035815, -0.006448472240155383, 0.00399855257451428, 0.008340531548682568, 0.0064418129509478264, 0.013047976727538614], [-0.015130954088325106, -0.013945428089335826, -0.008658204557328813, 0.004435156093118726, 0.017306075593389536, -0.010768622817210482, -0.00750417349506043, 0.005882511571540838, 0.0033572126435047816, 0.010765015820085086], [-0.016806162255721423, 0.006031726270673186, 5.361497631613661e-05, -0.0017481346631861526, 0.00575119809588165, -0.00890539821781321, -0.0035442779160368945, 0.008162849712650735, 0.008664951394138616, 0.006649694467833411], [-0.007084725074213808, 0.0006913407469236216, 0.007479878249093768, -0.002521414556245022, -0.006182955358951543, -0.017013697123335184, 0.0006847678502389964, 0.0006791294514489441, 0.012353485042250163, 0.013645669259217183], [0.0011234033540316044, 0.002398122258787474, 0.0029389207542481863, -0.0014640379836551294, -0.011722192151361922, -0.011166068818294678, 0.0006685311992440517, 0.0006466611055699632, 0.007663415430622858, 0.013431783729204984], [0.009410330059170918, 0.003478721249872988, -0.0022311845151830262, -0.013064819149639242, -0.013501492295673748, -0.017799718666215523, 0.010796728849146104, -0.0037118622501330365, 0.011258827769045836, 0.01702003614413601], [0.028924791815150088, 0.006758004657158463, -0.013839954542797383, -0.01029467054328709, -0.008175827307223367, -0.03774179603911785, 0.00905375118683996, -0.008245910614727322, 0.0012781380487141257, 0.02732774527178757], [0.04577299558393863, 0.0076327394589682995, -0.02061565410673313, -0.00428101654376799, 0.0008119940162124624, -0.0541904599266045, 0.006978132034991903, -0.013581991841378893, 0.0004915316432114631, 0.01731809958011733], [0.015006828310543016, 0.00014094586827267824, -0.0006237160337113607, 0.008094244144120256, -0.0007350061711662272, -0.0353643930615334, 0.004909105699637168, -0.004424103802791572, 0.0003699447527061426, 0.0032370373854643812], [-0.006280762908447372, -0.003065353666308849, 0.006866129050092554, 0.005670143864202761, -0.003657100631905578, 0.005332590088449185, -0.0014073468355762161, 0.0010640660240765524, 0.0041426972380901985, -0.00475499122228188], [-0.0016353251983436885, -0.00048449023803416504, 0.004269055766109317, 0.0021139029648903976, -5.192106472338664e-05, 0.003244970516308294, -0.0023927168700099387, 0.0010824202282660868, 0.0024094390166311814, -0.0017483268297897661], [-1.189366522361323e-05, 0.001182609289989775, 0.000525173341278801, 0.00027232077391807047, 0.001023983824835445, 0.00014224878660333006, 0.0004256708716368217, 0.0008563359348902366, 0.0006547475309017389, 0.0001893264122535286], [0.0008716083658313246, 0.0006115861008685963, 0.0010938847267406389, 0.0004944800463115007, 2.65690360584352e-05, 0.00030300306115253777, 0.00033987675229007943, 0.0002711111292769405, 0.0004183634581917692, 0.0003908694967040315], [0.0003966782052822979, 0.00011981980913448955, 0.00031492649240969086, -8.419382850523241e-05, -0.0002088956083776342, -0.00010823848024462493, 0.0010386538114877132, 0.0024745601565586742, 0.00022318255976123893, 0.00012408626907192536], [3.225348737789597e-05, -3.120567479980334e-05, 0.0020972883990936107, -0.0013231969132979247, -0.0017229616976064627, -0.0007591932805774953, 0.00020014744997908372, 0.009035372188307585, 0.0005736206200511119, -0.004513705183136684], [-0.0057043889908618035, -0.0033590683977318347, 0.004781719758915036, -0.004827165945776397, -0.005841629458319995, 0.00031584632461141506, 0.0006252223249878756, 0.01740685369086131, -0.0006954057295041267, -0.0052963124225667785], [-0.01703943577039438, -0.005905595347625335, 0.005463539337106959, -0.008472199235364967, -0.006833501316159198, 0.00866842944022861, -0.00412317633660691, 0.011165173395310082, -0.002984312537165685, 0.013785273537166923], [-0.0037546856649974224, -0.00359101449400609, -0.017506758576404373, -0.003938503369517606, -0.0015359175541835226, 0.018610155877691, -0.0021735951167715932, -0.015221074439007304, -0.010374283941349009, 0.030051524598207258], [0.004407807210715743, -0.000670241883987115, -0.023111294296746448, -0.0023362102044900265, 0.007524632368671593, 0.01384729322726783, 0.006876101333449927, -0.017228903428256625, -0.013970946351561512, 0.02174791441981344], [0.005759920669641582, -0.00011923994657337601, -0.01696627214244067, -0.0029184705181174125, 0.010770923299128056, 0.009363894858904659, 0.00020988499818380796, -0.01518290319453846, -0.014673899628075807, 0.017224299404100744], [-0.003657931732145147, 0.0004326720728363797, -0.015494396794553916, 0.0002966118423157747, 0.009158645760306982, 0.008276542482891317, 0.003815666779125615, -0.012514160244608843, -0.008759484387190396, 0.016958678422625512], [0.005451769653259239, -0.006694387567836354, -0.014781936960761874, -0.005227853034889317, 0.016484179230153172, 0.01222119483378763, -0.0008513380766166075, -0.015990232970268282, -0.004189271251873305, 0.011572621738974564], [0.008782134510252441, -0.0006436830471970864, -0.017716810121784096, -0.002588675216350004, 0.023910564040508966, 0.0143414573834882, 0.0031604946805615635, -0.0125606026697142, -0.023892433496074873, 0.0057828676672505765], [0.0006607649130288432, -0.011109767899340013, -0.016670657326549643, 0.005686924237442432, 0.007269112192505751, 0.015467717024416957, 0.015867941996976255, -0.015263498676878913, -0.0060232907188096955, -0.003469390249018022], [-0.012539812694236539, -0.07128951573614344, -0.006293644673746914, 0.036324245413513125, -0.007985782485719281, 0.016185457501784472, 0.01626309971343728, -0.005082199496442401, 0.04635443435704822, -0.00149224188870511], [-0.01995394750174832, 0.0140265611746498, -0.008129488888463142, 0.010669829385525279, 0.007655303049667812, 0.0037747799872132805, -0.0052755376809113215, -0.009536936895049919, 0.022887059364435896, -0.0068985188722304], [-0.025713457337937923, 0.0872424064531911, -0.007282978135016868, -0.007483926867318485, -0.021765864249606453, -0.0036564069029668693, -0.012742546527527486, -0.04079104329485861, -0.011916057474885191, 0.012070691383762749], [-0.01368970372192631, -0.0014134684178356439, -0.006524607704377794, -0.011025587105046463, -0.0025605555509038594, -0.004537981748005003, 0.010818967374727236, -0.0013417281835754612, 0.017562492918171944, 0.01811032364291645], [-0.013089707703910478, -0.03357725456999356, -0.004081962025334889, 0.02282696450897545, 0.009147739286218903, -0.004869171258234786, 0.003411856500224633, 0.007131729014518929, 0.008384712663805326, 0.012130970511384415], [-0.024099068842631927, -0.018721159384156822, 0.0007054509935082363, 0.013395021085883346, 0.01994920055629763, -0.011742802411724337, -0.0017719779337240574, 0.005335037685030593, -0.007616111489496583, 0.013031385098044967], [-0.02517320123780898, 0.006437508295340164, 0.0015457795231133562, 0.005397334077109584, -0.0002627902448529515, 0.0006942294919223745, 0.007319574856286973, -0.004159639095911107, -0.0039029702010418047, 0.016267189008283493], [-0.019348435870379346, 0.0034826248957447203, -0.000256938022352002, -0.002508070832183129, -0.007511521211023822, 0.0033165262102572766, 0.009219088739908081, 0.0029906181652139853, -0.0029929468847639086, 0.01798115946708991], [-0.011978555794226362, 0.00400070871161763, -0.0005515326248716986, 0.0006881809033680551, -0.0014705865820110917, -0.0028592677829594997, 0.0030230404445866273, 0.0005573476167949436, 0.0010011704644387262, 0.008078353680169695], [0.013694014977431092, 0.0016182741809141372, -0.016428175628265495, -0.0061186431112722536, -0.001963853993202748, -0.009786228101400334, 0.015689655132506634, -0.004590382588679722, -0.007146009203520799, 0.00861695073312861], [0.03193003555610309, 0.005657146258567295, -0.026414765398634292, -0.010177155073990895, 0.0017700311332224398, -0.01750119675256308, 0.021390992488431404, -0.004819195431704845, -0.010206616632631584, 0.008613191194865515], [0.03589486915558279, 0.004337582297195188, -0.026181335577224654, 0.0010936541263597132, 0.003154831716014143, -0.02883183298634269, 0.026812845960620283, -0.010935010087509557, -0.015879110763409452, 5.854158048638664e-05], [0.006419607183499607, -0.004268990143243781, -0.007041937960618467, 0.011967991625986968, -0.00369129068528739, -0.01222508217336765, 0.019444556414825138, -0.0021056291297356696, -0.015116014045922565, -0.00457306381602536], [-0.00548121082169512, -0.006121404197651946, 0.011823320591573771, 0.004064160847931432, -0.004155270348708728, 0.0019291028588682838, 0.0006408364219422127, 0.002129797938993925, -0.0005124125415676344, -0.003215974417963009], [-0.0004440979282869333, -0.0009367372996854329, 0.00819642513393335, 0.00116394802904875, -0.001153369075100628, 0.0007009639766304529, -0.004019888050536542, -0.00023205236338243897, 0.0004326316296662115, -0.00023953841120945342], [-5.3917674190373436e-05, 0.0001483586973417589, 0.002078323990733644, 0.0013095028059178524, 0.00010766507161769747, 0.000475757403924602, -0.00037960428443740957, 0.00014568071940790114, 0.0005729221095895449, 0.0010815156744958126], [0.0011408952363128877, 6.436170666006112e-05, 0.0011537469982263993, 0.0006263778212497466, 0.000576770842646017, 0.001239793977699373, 0.00013224013691896924, 0.000497618045564435, 0.0006356571743830711, 0.0008037309791352217], [0.0008966827082010074, 0.0008461477008866813, 0.0006430668247704369, 0.0004549351308319477, 8.432762603493958e-05, -2.7604694473645107e-05, 0.001090715078536992, 0.0014057532411200246, 0.0004252855496208482, 0.0005547922426666339], [-0.0003954801975750229, 6.017877367978342e-05, 0.0015906953775586038, 0.00010716341141874642, -0.0004371076860709549, 0.00020479202120578566, 0.0004947479966128794, 0.004316087592192234, 0.0001650557577026173, -0.0020215933518385547], [-0.006588643492613149, -0.0014821701095373253, 0.0017898940087999388, -0.0021682863770796476, -0.0016879435430700283, 0.00021263925348559117, 0.0007789973154045883, 0.008290739700305446, -0.001065603558897371, -0.00048153776726963805], [-0.015210347027130127, -0.0038480762384545822, 0.0013661536574588469, -0.0020007003304769, 0.010250183091643791, 0.005342062011530637, -0.0064827452611354855, -0.0007290224422701797, -0.005265183335824625, 0.012024009509907375], [0.007122599504666999, -0.0032152438922395028, -0.019150649194053296, 0.0036704508094821133, 0.0257429441364295, 0.0014888109647322417, -0.006313849420928628, -0.02001235862476135, -0.015297622100934008, 0.014754651427740989], [0.009571466052960598, -0.00024612111051239895, -0.01586333286936902, 0.003604414869872513, 0.03459851574452473, -0.007355775315052561, 0.0014129311722632586, -0.019195992235306002, -0.020623524791706656, 0.008566220087406814], [0.011205105664295029, -0.0011960888120757522, -0.010851649870336034, 0.0008138906174554594, 0.02782612757971877, -0.008385147913079304, 0.002354173914681586, -0.014228552121004602, -0.015239578094676347, 0.004888780013770785], [0.007548114127981926, -0.0003122073698024662, -0.009587008479427726, 0.0030457644612032044, 0.019838999846452262, -0.003237533753283088, 0.00044496866248921595, -0.013009322858337278, -0.012175197619764343, 0.008191575023393294], [0.013008083301773303, -0.004698297870078081, -0.009225980790483881, 0.0024475162766040715, 0.01386400977097251, 0.00512230538070879, 0.002695733487194326, -0.01777157221221415, -0.017953857547635788, 0.0115238272363246], [0.02120660621279057, 0.004879981460484169, -0.002546461183381626, -0.008369612144683201, 0.012627230165991342, 0.008718245863494727, 0.003172030845479942, -0.021214345671586136, -0.02768007722131358, 0.0064610387077914996], [-0.0002501851172913037, -0.028327462287749683, 0.00880530147229695, -0.004063061146928086, 0.0026610162993946766, 0.0034006437634407642, 0.021475819097586214, -0.02324975889445223, 0.006832344289008889, 0.002334397736760489], [-0.01779216274718799, -0.058730033298957866, 0.009056083493504907, 0.019464288208126145, 0.01040885527783634, 0.013791545773039668, 0.005708988555802696, -0.001035414559645188, 0.03124930192476348, 0.0069480103616147235], [-0.009095046699991541, 0.05102276026386066, -0.0021050480049433686, -0.0179070371331548, 0.0019841840359845955, -0.00386679358382171, -0.01899133734301999, -0.02461588127177891, 0.012969580424875109, 0.0055368610373844745], [-0.022605447084123858, 0.048316095232256974, -0.005345900384281095, -0.006854182898970239, -0.019008120834569684, -0.008775425775052777, 2.431261213763395e-05, -0.0344784241358159, 0.009418928456062929, 0.017674479382390085], [-0.004451373328976878, 0.011069947424494582, -0.010632170619969102, -0.0038403391497582222, -0.0016819750379494611, 0.0032608167209170753, 0.005039878082360972, 0.0027378919932134357, 0.0029384265123932212, 0.000771645542974243], [-0.01631287479292058, -0.043678250279926265, 0.0024821268826646986, 0.02305632839020772, 0.008840334443120918, -0.0019275799854677814, 0.012503963681161885, 0.011702471264137973, 0.005667018913546168, 0.005299668884190874], [-0.021269232034791273, -0.011570657543418787, -0.0016452701418150132, 0.017735364840666262, 0.017462245945237903, -0.02200475946677879, -0.0014592883052487909, -0.0011791208043622913, -0.009984058367167004, 0.017345194843829802], [-0.01773796272680401, 0.005724017709513106, 0.0033546113360535916, 0.015145473065476266, 0.0032653089023418976, -0.004387726833866437, 0.0026006485967719935, 0.001964466468273902, -0.013992287845128258, 0.007716516252600359], [-0.016305173095517145, -0.0015076565915302601, -0.0015135154970708795, 0.006868065225494801, 0.01935343812366719, -0.008213192123321191, 0.0007903193270983052, 0.008323114883971035, -0.011482407212117029, -0.003226169896658823], [0.006047842161386766, -0.0013064622135677414, -0.003941571622136143, 0.0005588473474527919, 0.019198062145005444, -0.008413170566558872, -0.0023050215596884015, 0.001205708937773187, -0.00941861047800584, -0.0074343193220747705], [0.022221252380737924, 0.000892803266788506, -0.016018687685908795, 0.0031802473827267667, 0.00927916210775329, -0.011767393270044448, 0.006567632918728738, 0.0009739718065724411, -0.009622574722664437, -0.009432433924039793], [0.015676770545455732, 0.0004596029021449938, -0.020773365538804867, -0.0018540135947468174, 0.01128745150339027, -0.009544261424284673, 0.020693553316537525, 0.008425962183047683, -0.014829844762238401, -0.009086919768807053], [0.018627891888396683, -0.0004410331777014044, -0.02558063992725432, 0.005751052567543743, 0.010364227920480798, -0.008540232473112544, 0.025202719919611496, -0.00046911442330872815, -0.015601464604364568, -0.012696181627990633], [0.0016479793272167924, -0.003530757769375329, -0.015523424531066093, 0.014318505485276209, -0.006744921666528342, 0.0033150868530471937, 0.019392890862745434, 9.313790195975286e-05, -0.011147182358432598, -0.010257042723709276], [-0.006463395949954541, -0.005867794748916828, 0.013209229029162788, 0.002768390746592125, -0.008100930809245167, 0.0014330740976579476, 0.003721487326352691, 0.0036467112320918388, -0.0006804960127469276, -0.002338569250926699], [0.0002737849050933794, -0.0007570878141730155, 0.010264855458995838, -0.0007421272698583881, -0.00026714343735586025, -0.000564663800163794, -0.004384668746718557, -0.00015226690120404173, -0.0006035125468741296, 0.001108519131242366], [2.511715998315521e-05, 0.0005594483686540574, 0.0013810059984434694, 0.00039932824238565485, 0.00010765050821504511, 0.0006017315074233638, 0.00030876677124788243, 0.0009372954697705338, 0.0002459974265045741, 0.0011937864393495833], [0.00041198165648779437, 0.0006062595937920454, 0.0008905064421237587, 0.0002531708318088502, 0.0001977722158065743, 0.0006216292914868095, 0.00016064812972630622, 0.0008155332310057099, 0.0006958027924348674, 0.0009450316359210033], [0.0008208609973308377, 0.0005128986501800548, 0.00020363538035305482, 0.0008098360939492567, 0.0006118153847783783, 0.0003186370377823973, 0.0012749235688603456, 0.00020164995375544163, 0.0009405246561521068, 6.240178278489998e-05], [0.0004104367430645968, -1.6722941550274006e-05, 0.00037758330741058274, 0.0020626061487443075, 0.0009957410794550388, 0.0003944176769357381, 0.00045949247196846614, 0.0020634398994645747, 0.0008487174461117436, -0.00015575418519366368], [-0.007590768037464126, -0.0014330131619535095, 0.0010908613317573298, 0.0010693938208832519, 0.0015389787665099713, 0.0012342161184608885, -0.0014466232385176908, 0.004732884702894175, -0.0012493322006195647, -0.0006269320658599604], [-0.007682683963775068, -0.002764220876922545, 0.00022670972977973966, 0.0025721241661163584, 0.016891032551618113, 0.0006652579028122582, -0.009221864468580816, -0.007829702016022465, -0.0010238730863668271, 0.0036266649351007355], [0.01466077527259265, -0.0025740394188825777, -0.004730672834779144, 0.010925682307969623, 0.0358311311285672, -0.019684248837763898, -0.01159863989142117, -0.01822303972216676, -0.009037194646529696, -0.002715754270012918], [0.004510932199325178, -0.00014180024903736197, -0.0044489236731449135, 0.007596955231286113, 0.036657381881605985, -0.022679257899599545, 0.0010209120195351262, -0.0031471694669446956, -0.008177370017134172, -0.00780736220467161], [0.012318426973442919, -0.0012296231317818268, -0.003873151506546192, -0.0011140382900068542, 0.026807441483642863, -0.016934803164534513, 0.0010011548595318857, -0.00788849293842848, -0.0031994463174669393, -0.004297356040010373], [0.015718568516707616, -0.002632707234232015, -0.0019241261268451567, -0.005855544041579571, 0.02525740769456317, -0.003985230022259481, -0.004946296537534226, -0.01773484892514202, -0.009854757199176386, 0.0024142272890324587], [0.019479028285292254, -0.0020388560072343203, -0.002299681016600693, -0.008978393215743513, 0.006696055387521915, -7.958544494152185e-05, 0.00486945772200272, -0.015634146519756083, -0.01309130103324686, 0.008432324472828047], [0.017721662387983055, -0.001991161079915072, 0.0022649370969230775, -0.012469269696065113, 0.0022135069812610356, 0.00032145038549406953, 0.010959100622494956, -0.014837489495263841, -0.017937361757818987, 0.01069523627569588], [-0.0060589578282519, -0.02668374298276688, 0.008934679105338942, -0.006251928838619419, 0.015968863003988643, 6.835208079485237e-05, 0.015728325851667, -0.012873476289963935, 0.004619373997201648, 0.002577914863709481], [-0.016812586192655944, -0.028971055262759778, 0.006696484485762853, 0.009497413489087374, 0.02212578119057995, 0.006685372820364733, -0.00526708132670563, -0.0012384790757977685, 0.020588197795452172, 0.005446859729836179], [-0.015911395973367787, 0.0417354053640974, 0.00820688512775678, -0.010366068362950018, 0.0006926924208050345, -0.009354383477254728, -0.012693663234655834, -0.034039603809531, 0.024341276988390347, -0.001700734367922062], [-0.02195574578942834, 0.03797741773728878, -0.010770084256540522, -0.0026633417414447997, 0.0016127814801538448, 